0.0000775	0.0000105	0.0000005	0.0000074	0.000417	0.0000040	0.0000010	0.000132	0.0000700	0.0000761	0.000164	0.0000725	0.000103	0.0000000	0.000157	0.0000025	0.0000113	-0.0000504	-0.0000652	-0.0000614	0.0000041	-0.0000530	0.0000070	0.000111	0.000135	0.0000736	0.0000112	0.000141	0.0000020	-0.0000557	-0.0000656	0.0000756	-0.0000671	-0.0000546	-0.000470	0.0000062	0.0000303	-0.0000674	0.0000107	-0.0000567	0.0000321	-0.0000512	0.000416	-0.0000626	0.0000016	-0.0000644	0.0000340	0.0000012	-0.0000533	-0.000405	0.0000110	0.0000060	-0.0000650	0.0000054	0.0000044	0.0000010	0.0000157	0.0000711	-0.0000556	-0.0000660	0.0000005	-0.0000525	0.0000140	0.000126	-0.0000600	0.0000366	-0.000423	0.0000110	0.0000310	0.0000106	-0.0000513	0.0000064	0.0000152	0.000411	0.000455	0.0000321	0.0000325	0.000415	0.0000756	-0.0000626	-0.0000601	0.0000011	0.0000026	0.0000113	0.0000017	-0.0000674	0.0000320	0.0000137	-0.0000515	0.0000714	-0.0000505	-0.0000511	0.0000072	0.0000175	0.0000140	-0.0000675	0.0000156	0.0000016	0.0000774	0.0000766	0.000152	0.000416	0.0000117	0.0000036	0.0000705	0.0000701	-0.000421	0.0000075	0.0000007	-0.0000507	-0.0000646	-0.0000623	0.0000021	0.0000347	0.0000153	0.000165	0.000114	0.0000313	0.0000106	0.0000120	0.000105	0.0000030	0.0000314	0.0000063	0.0000101	0.0000023	0.000116	0.0000007	-0.0000510	0.0000324	0.0000124	0.0000005	-0.0000523	0.0000011	-0.0000502	0.000410	0.0000733	0.0000014	0.000414	0.0000110	0.0000175	-0.000446	-0.000477	0.0000151	0.000106	0.0000001	0.0000110	-0.0000604	0.0000173	-0.0000600	0.0000142	0.0000014	0.0000142	0.0000310	0.0000710	0.0000716	0.0000070	0.0000111	0.000111	-0.0000661	0.0000767	0.000142	0.0000347	0.0000355	0.000451	0.0000001	-0.0000533	0.0000761	0.000100	0.0000111	0.0000011	0.0000365	0.000101	0.000114	0.0000011	0.000172	0.0000700	0.0000046	0.0000372	-0.0000567	0.0000041	-0.0000562	0.0000721	0.0000731	-0.0000540	0.0000040	-0.0000521	0.0000307	-0.0000610	0.0000312	0.000411	0.0000007	0.000160	0.0000771	-0.0000523	0.0000021	0.0000760	-0.0000516	0.0000074	0.000137	0.0000372	0.0000770	0.0000000	0.0000115	0.0000015	-0.000425	-0.0000655	-0.000465	0.0000017	0.0000056	-0.0000562	-0.0000554	-0.0000611	0.0000003	0.0000365	0.0000770	0.0000771	-0.0000616	0.000106	0.0000341	0.0000015	0.000411	0.0000102	0.000167	-0.0000536	0.0000071	0.000164	0.0000160	0.0000731	-0.0000621	0.000114	0.0000107	-0.0000557	0.000451	0.0000313	0.0000112	0.0000112	0.0000126	0.0000002	-0.000471	0.0000713	-0.0000501	0.0000005	0.0000305	0.0000050	-0.000404	-0.0000613	0.0000015	0.0000131	-0.0000500	-0.0000556	0.0000735	0.0000342	-0.000472	0.0000004	0.0000715	0.0000014	0.0000000	0.0000702	0.0000347	-0.0000667	-0.0000650	0.0000101	0.0000721	0.000110	-0.0000607	0.000150	0.0000021	0.000142	0.0000770	0.000110	0.0000336	0.0000144	0.000141	-0.0000540	0.0000002	0.0000160	0.0000754	0.0000076	0.000411	0.0000337	-0.0000657	0.0000016	0.0000302	0.000101	0.0000021	-0.0000500	-0.000404	0.0000027	-0.0000666	0.0000016	0.0000075	0.000126	-0.0000617	0.0000113	0.000110	-0.0000577	0.0000364	0.0000744	-0.000474	0.0000060	0.0000024	0.0000016	0.0000150	-0.0000605	0.0000321	0.0000177	0.0000115	-0.000460	0.0000175	0.0000015	0.0000300	0.0000175	0.0000711	0.0000030	0.0000350	-0.0000520	0.000115	0.0000713	0.0000102	0.000451	0.0000002	0.000134	0.0000307	0.0000012	0.0000101	0.0000135	0.0000035	0.0000323	0.0000766	-0.000425	0.0000111	0.0000011	-0.000447	0.0000762	0.0000370	0.0000117	0.0000176	0.0000136	0.0000004	0.0000373	0.0000166	0.0000017	0.000120	0.000173	-0.0000646	0.0000065	0.000413	0.000410	0.0000751	0.0000113	-0.0000532	-0.0000671	0.000132	0.0000117	-0.000402	0.0000713	-0.0000652	0.0000325	0.0000072	-0.0000666	0.0000017	0.0000111	-0.000400	0.0000362	0.0000700	0.0000117	0.0000705	-0.0000522	-0.0000611	-0.000470	-0.0000616	0.0000700	-0.0000557	-0.0000660	0.0000111	-0.0000630	0.0000723	-0.000473	0.0000365	0.0000001	0.0000014	-0.0000535	0.0000116	0.0000077	-0.0000545	0.0000757	0.000127	-0.0000547	0.000411	-0.0000604	-0.0000660	0.0000060	0.0000145	0.0000115	0.000163	0.0000767	0.0000315	0.0000303	0.0000110	-0.0000515	0.000123	0.000110	0.0000123	0.0000140	0.0000060	-0.0000564	0.0000301	0.0000710	0.0000006	0.0000720	0.0000143	0.0000005	0.000106	0.0000114	-0.0000602	0.000165	0.0000023	0.0000170	0.0000126	-0.0000537	-0.0000521	0.0000157	0.0000000	0.000456	0.0000026	0.0000031	-0.0000656	0.000151	0.0000010	0.000123	-0.0000501	0.0000021	0.0000170	0.0000042	-0.000473	0.0000110	0.0000014	0.0000307	-0.0000501	-0.0000611	0.0000135	0.0000150	-0.000440	0.0000015	0.0000063	0.000431	0.0000336	-0.000401	0.0000055	-0.000445	0.0000710	0.0000057	-0.0000612	-0.0000516	0.0000164	0.0000101	0.0000021	0.0000076	0.0000171	-0.0000504	0.0000174	0.0000176	0.0000315	0.0000757	-0.000467	0.0000013	-0.0000515	0.0000177	0.0000734	0.0000746	0.0000367	0.0000141	-0.0000522	-0.0000614	0.000457	0.0000702	0.0000170	0.000112	-0.0000655	0.0000100	0.000120	0.000411	-0.0000627	-0.0000556	-0.0000615	0.000160	0.0000041	0.0000072	-0.0000541	0.0000707	0.0000042	-0.000405	0.0000055	0.0000111	-0.0000513	0.0000115	-0.000445	0.0000370	0.0000121	0.0000160	0.0000733	0.0000034	0.0000007	-0.0000554	-0.0000622	0.000415	0.0000374	0.0000772	0.0000360	0.0000155	0.0000033	0.0000011	0.0000316	0.0000023	-0.0000566	0.0000007	-0.0000614	0.000450	0.0000700	-0.000461	0.0000115	0.0000340	0.0000313	-0.0000541	0.0000737	0.000434	-0.0000621	-0.0000503	0.0000117	0.0000135	0.0000151	0.0000022	0.0000326	0.0000174	0.000114	0.000413	0.0000340	-0.0000651	0.0000133	0.0000366	0.0000163	-0.0000512	0.0000146	0.0000034	0.0000073	0.0000032	0.000432	0.000136	0.0000040	0.0000337	0.0000117	0.0000700	-0.0000514	0.0000170	0.0000074	-0.000461	0.000417	0.000162	0.0000303	0.0000067	0.0000711	0.0000701	0.0000306	-0.0000600	0.0000100	-0.0000645	0.000107	-0.0000650	0.0000121	0.0000701	-0.0000660	-0.0000550	0.0000113	-0.000443	-0.0000614	0.0000010	0.0000001	0.0000000	0.000415	0.0000124	-0.0000605	0.000432	0.0000165	0.000151	0.0000012	0.0000772	0.000103	0.0000110	0.0000130	0.0000041	-0.0000513	0.0000732	0.0000065	0.0000314	0.000117	0.0000331	-0.0000671	0.0000113	0.000150	0.0000707	0.0000003	0.0000111	-0.0000560	-0.0000601	-0.0000655	0.0000137	-0.0000610	0.000100	0.0000117	0.0000110	0.0000765	-0.000460	-0.0000532	-0.000425	0.000417	-0.0000607	0.0000006	0.0000711	0.0000001	0.0000720	0.0000313	0.0000061	0.0000110	0.0000150	-0.0000570	0.0000006	-0.0000551	-0.000474	-0.000400	0.0000116	0.0000322	0.0000736	0.0000167	-0.000401	0.0000760	0.0000171	0.000101	0.0000011	0.0000100	0.0000142	-0.000446	0.0000142	0.0000022	0.0000742	-0.000401	-0.000420	-0.0000645	0.000116	0.0000100	0.000140	0.0000011	-0.0000617	0.000101	0.0000012	-0.0000564	0.0000337	0.0000016	-0.000420	-0.0000500	0.000414	0.0000150	0.0000717	-0.0000625	0.0000111	0.0000020	0.000127	0.0000141	0.000414	0.000416	0.0000075	-0.0000563	-0.0000513	-0.0000642	0.0000133	-0.0000537	0.000155	0.0000740	-0.000461	0.0000726	0.0000040	0.0000723	-0.000401	0.0000157	0.0000357	-0.0000550	0.0000706	0.0000143	0.0000111	0.0000031	-0.0000511	0.0000100	0.0000361	-0.0000504	0.0000302	0.0000713	-0.000426	0.0000146	0.0000031	0.0000101	0.0000160	0.0000121	0.0000161	0.0000326	-0.0000662	0.0000733	0.0000157	0.0000705	-0.000406	0.0000031	0.0000725	0.0000104	0.0000311	-0.0000513	0.0000111	0.0000071	-0.000470	0.0000010	0.0000002	-0.000404	-0.000460	-0.0000613	0.0000114	-0.0000653	0.0000064	0.0000752	0.0000032	0.000417	0.000411	-0.0000551	0.0000150	-0.0000654	0.0000176	0.0000011	0.0000710	0.0000354	0.0000350	0.0000710	0.0000345	0.0000000	0.0000020	0.0000010	-0.000440	0.000115	0.0000300	-0.0000535	0.0000311	0.0000134	0.0000140	0.0000710	0.0000010	0.0000022	0.0000116	0.000135	0.0000114	0.0000012	0.000110	0.0000100	-0.0000542	-0.0000675	-0.000402	0.0000073	0.0000370	-0.0000516	0.000415	-0.0000572	0.000430	-0.0000630	-0.0000546	0.000147	0.0000003	0.0000163	-0.0000670	0.0000370	0.0000755	0.0000001	0.0000147	0.0000714	-0.0000661	0.0000000	0.0000151	-0.0000524	-0.0000664	0.0000113
0.0000175	0.0000334	-0.0000818	-0.0000677	0.0000087	-0.0000898	0.000199	0.0000740	0.0000192	0.0000339	-0.000495	-0.000443	0.0000094	0.0000745	0.000113	-0.0000670	-0.0000839	0.000141	0.0000091	0.0000929	0.0000306	0.0000186	-0.0000858	0.000110	0.0000130	0.0000998	-0.0000602	0.0000338	0.0000725	-0.0000839	-0.000424	-0.0000576	0.0000151	-0.0000656	-0.0000594	-0.000441	-0.0000581	0.0000993	0.0000712	-0.0000519	-0.0000876	-0.000469	0.000433	-0.0000806	0.0000781	-0.0000627	0.000182	0.0000062	0.0000045	-0.0000674	-0.000467	-0.0000859	0.000450	0.0000929	0.0000073	-0.0000831	0.0000306	-0.0000561	-0.000485	0.0000031	0.000189	-0.0000526	0.0000769	0.0000756	0.0000190	0.000173	0.0000170	0.000155	-0.0000682	-0.0000621	-0.0000676	0.0000080	0.0000768	-0.0000597	0.000145	-0.0000879	0.000115	0.0000091	0.0000037	-0.0000590	0.0000082	-0.0000577	-0.0000857	0.000134	0.0000085	0.0000951	0.0000154	0.0000338	0.0000112	-0.000447	0.0000138	0.0000024	0.0000177	-0.0000627	-0.000444	0.0000306	0.000127	-0.0000806	-0.0000562	0.0000136	-0.000497	0.0000717	0.0000176	0.0000331	-0.0000521	-0.0000685	0.0000972	0.0000006	0.000129	0.000181	0.0000162	0.000193	0.000165	0.0000050	-0.0000874	0.0000922	0.0000103	0.0000089	0.0000384	-0.0000816	-0.0000663	0.0000171	-0.000443	-0.0000823	0.0000794	0.0000359	0.0000938	0.0000934	0.0000982	0.0000134	0.0000952	-0.000495	-0.0000846	0.0000990	0.0000015	-0.0000687	-0.0000558	0.0000918	-0.0000662	0.0000071	-0.0000661	-0.000424	0.0000386	-0.0000528	0.0000032	-0.000488	-0.0000635	-0.0000627	0.000151	-0.0000564	0.0000050	0.000115	0.000111	0.0000306	-0.000484	-0.0000553	-0.0000865	-0.000408	-0.0000687	0.0000336	-0.0000808	0.0000737	0.0000989	0.000196	0.0000996	0.000170	0.0000078	-0.0000676	-0.000480	0.0000995	0.0000745	0.0000116	0.0000768	0.0000959	0.0000168	-0.0000851	0.0000030	0.0000768	-0.0000506	-0.0000512	0.0000015	0.0000768	0.0000716	-0.0000879	0.000438	0.000184	-0.0000589	-0.0000683	0.000175	0.0000193	0.0000162	0.0000069	0.000412	-0.0000864	0.0000188	0.0000059	0.0000999	0.0000920	0.0000375	0.0000148	0.0000774	0.0000069	0.0000148	0.0000732	0.0000086	0.0000055	0.0000194	-0.0000597	0.0000116	0.0000055	-0.0000552	0.0000906	0.000178	-0.0000631	0.0000302	0.0000132	0.000130	0.000138	0.0000027	0.0000712	-0.0000593	-0.000405	0.000107	0.0000319	-0.000479	-0.0000552	-0.000464	0.000189	0.0000193	0.000169	0.000157	-0.0000637	-0.000490	0.0000033	0.0000917	0.0000943	0.000196	0.0000998	0.0000018	-0.0000809	-0.0000598	-0.0000643	-0.0000889	0.0000118	0.0000926	-0.0000676	0.000118	0.0000984	0.0000968	-0.0000555	0.0000350	0.0000336	-0.0000691	0.0000169	-0.0000808	-0.0000876	-0.0000804	-0.0000518	-0.0000882	0.000454	-0.0000551	0.0000124	-0.0000637	0.0000975	0.0000372	-0.0000884	0.0000985	0.0000146	-0.0000678	0.0000988	-0.000421	0.0000131	0.0000054	-0.0000670	-0.0000521	-0.0000529	0.0000364	-0.0000604	0.0000750	0.0000747	0.000177	0.0000780	0.0000300	0.0000067	-0.0000503	0.0000733	0.0000157	0.0000767	0.0000922	-0.0000823	0.0000762	0.0000751	0.0000353	-0.0000680	-0.0000586	0.000146	0.0000978	0.0000307	-0.0000681	-0.0000618	-0.000466	-0.0000849	-0.0000634	0.0000003	0.0000095	-0.0000864	0.0000364	0.0000378	0.0000957	0.0000039	0.000185	0.0000080	-0.000447	-0.0000630	-0.0000609	0.0000330	-0.0000674	-0.0000691	-0.0000832	0.0000073	-0.000475	-0.0000644	0.0000762	-0.0000813	-0.0000659	-0.0000652	-0.0000878	0.0000972	-0.0000575	0.0000906	-0.0000607	0.0000318	0.0000348	-0.000444	0.0000093	0.0000745	0.0000909	-0.0000681	0.0000133	0.0000748	-0.0000666	0.0000175	0.0000914	-0.0000691	0.0000792	-0.0000846	-0.0000886	-0.000444	-0.0000849	0.0000914	0.0000911	-0.000462	-0.0000513	-0.0000890	0.0000030	-0.0000822	-0.0000651	-0.000400	0.0000937	0.0000957	-0.0000664	0.000185	-0.0000597	0.000119	-0.000426	-0.000465	0.0000740	-0.0000898	-0.0000848	-0.0000649	0.0000046	0.0000931	0.0000377	0.0000359	0.0000798	0.0000907	0.0000016	0.000199	0.0000921	-0.0000579	-0.0000865	-0.0000570	0.0000032	0.0000708	0.0000954	0.0000978	-0.0000549	-0.0000697	0.0000711	-0.000469	-0.0000573	-0.000474	-0.0000669	-0.0000561	0.000419	0.0000098	0.0000741	0.0000060	0.000173	0.0000700	0.0000902	0.0000995	0.0000166	0.0000064	0.0000074	0.0000792	0.0000018	0.0000381	-0.0000653	0.000194	-0.0000593	0.000101	0.0000334	-0.0000859	0.0000118	-0.0000835	-0.0000579	-0.0000643	-0.0000840	-0.000444	0.0000386	0.000127	-0.0000650	0.0000988	0.0000188	0.0000746	-0.0000527	-0.0000884	0.0000331	0.000168	-0.000474	-0.0000802	0.0000183	0.000413	-0.0000656	-0.000483	-0.0000610	0.0000702	-0.0000651	0.0000022	-0.0000571	0.0000759	0.000137	0.0000384	0.0000125	-0.0000609	0.000130	0.0000977	-0.0000603	0.0000792	0.000455	-0.0000584	-0.0000822	0.0000157	0.0000161	-0.0000607	0.0000001	-0.0000521	0.0000338	-0.0000890	0.0000079	0.0000962	0.0000012	-0.0000671	0.0000037	0.0000087	-0.000403	0.000150	-0.0000644	0.0000925	-0.0000887	-0.0000880	0.0000939	0.000111	0.0000949	-0.0000547	-0.0000575	0.000142	-0.0000840	0.000116	0.0000169	0.000172	0.0000906	0.0000921	0.0000936	-0.0000806	0.000148	0.0000025	-0.0000808	-0.0000872	-0.0000834	-0.0000808	-0.0000608	-0.000429	0.0000756	0.0000042	0.0000331	-0.0000628	0.0000313	0.000197	0.0000905	-0.000467	0.0000333	-0.0000554	0.0000397	0.0000778	0.0000997	0.0000018	0.0000328	0.0000007	-0.0000545	-0.0000635	0.0000052	-0.0000675	0.0000115	0.0000948	0.0000080	0.0000186	0.0000752	-0.000461	0.0000754	0.0000763	0.0000989	-0.0000667	0.000100	0.0000182	0.0000376	0.0000979	0.0000342	-0.0000881	-0.0000837	-0.0000617	0.0000025	0.0000989	0.0000163	0.0000054	-0.0000539	0.0000161	0.0000149	0.0000305	0.0000042	0.0000156	0.0000332	-0.0000622	-0.0000846	0.000164	0.0000303	0.0000074	-0.0000887	0.0000083	0.0000781	-0.000466	0.0000787	0.0000073	0.0000004	0.0000046	0.000149	0.000197	-0.0000580	0.0000730	0.0000170	0.0000100	0.000138	0.000195	0.0000757	0.0000197	-0.0000687	0.0000129	0.0000368	0.0000339	0.0000049	0.0000779	0.0000737	-0.0000842	0.0000970	-0.0000671	0.0000920	-0.0000869	0.0000785	0.0000071	0.0000034	0.0000929	-0.0000651	-0.0000616	0.0000705	0.0000016	-0.0000631	-0.0000674	0.0000068	-0.0000599	-0.0000832	-0.0000852	0.0000028	0.0000719	-0.0000565	0.0000767	0.0000357	0.0000920	-0.0000556	-0.000489	0.0000390	0.0000037	-0.0000521	0.000123	0.0000984	-0.0000514	-0.0000832	0.0000189	0.0000950	-0.0000597	-0.0000686	0.000126	0.0000916	-0.0000675	0.0000162	0.0000355	0.0000362	-0.0000688	0.0000190	0.0000325	0.0000352	-0.0000510	0.0000991	0.0000004	0.0000173	0.0000197	0.0000909	-0.0000898	0.0000129	0.000127	-0.0000515	-0.0000896	0.0000150	0.0000335	-0.0000848	0.0000998	0.0000107	0.000199	0.0000900	0.0000364	-0.000491	0.0000116	0.0000715	0.000106	-0.0000890	0.0000385	0.0000985	0.000178	0.0000925	0.0000147	0.0000372	0.000141	0.000139	0.0000335	0.0000967	0.0000707	0.0000391	0.0000789	0.000198	-0.000488	0.000459	0.000154	-0.000420	-0.0000679	0.0000934	-0.0000547	-0.0000678	0.0000907	-0.0000681	-0.0000837	0.0000782	0.0000046	-0.0000693	0.000126	0.0000190	-0.0000604	0.0000118	-0.000479	-0.0000631	0.0000394	0.0000721	0.0000372	-0.0000610	-0.0000591	0.000156	-0.0000686	-0.0000559	-0.0000514	0.0000906	-0.0000843	0.0000344	0.0000363	-0.0000867	0.0000186	-0.0000698	0.0000941	0.0000043	0.0000719	-0.0000615	0.0000323	-0.0000880	0.0000143	-0.0000826	0.0000002	0.0000903	-0.0000557	0.0000945	-0.0000511	-0.0000619	-0.000423	-0.0000620	0.0000779	0.000129	0.0000334	0.0000177	0.0000085	0.0000328	0.0000793	-0.0000509	0.0000723	0.0000089	-0.000471	0.0000100	0.000115	0.0000384	0.0000382	0.0000961	0.0000027	0.000126	-0.000474	0.0000782	-0.0000854	0.0000768	0.0000198	-0.0000810	0.000198	-0.0000889	0.000167	-0.000424	0.0000083	0.0000303	-0.0000572	-0.0000864	0.000451	-0.0000841	-0.0000653	0.000118	0.0000798	0.0000993	-0.000426	-0.0000576	0.0000020	-0.0000517	0.0000183	-0.0000830	0.000157	0.0000986	-0.000425	0.000451	0.0000167	0.0000042	0.000197	0.0000012	0.0000151	-0.0000587	-0.000493	0.000456	-0.000472	0.0000744	-0.0000678	0.0000107	-0.0000846	0.0000034	-0.000476	-0.0000533	0.0000920	-0.0000806	0.0000709	0.0000787	0.0000128	0.000156	0.000182	-0.0000887	0.0000170
0.0000049	0.000458	-0.0000590	0.0000914	-0.0000891	-0.0000535	0.0000368	0.0000350	0.000100	0.0000365	-0.0000696	0.0000793	0.0000006	0.000153	0.0000904	0.0000763	0.0000910	0.0000911	0.0000341	0.0000912	0.0000332	0.0000112	-0.0000847	0.0000768	0.000198	0.0000105	0.0000916	-0.0000846	0.0000005	0.000431	-0.0000591	0.0000792	-0.0000509	-0.0000850	-0.0000629	0.0000032	0.0000137	-0.0000559	0.0000977	-0.0000664	0.0000963	0.0000354	0.000145	0.0000195	-0.0000899	0.0000749	0.0000034	0.0000393	0.0000716	-0.0000537	0.0000005	0.0000782	0.0000095	0.0000917	0.0000726	-0.0000842	0.0000172	0.0000981	0.0000373	0.0000145	0.000418	0.0000174	-0.0000811	-0.0000895	0.0000114	-0.0000581	-0.0000690	-0.0000823	0.0000303	0.0000179	0.0000349	0.0000936	-0.000428	0.000173	0.0000028	-0.0000854	-0.0000844	0.0000123	-0.000400	0.0000031	-0.0000635	0.0000021	0.000169	0.0000345	-0.0000585	-0.0000505	0.0000026	-0.000427	-0.0000857	-0.0000679	-0.000490	0.0000347	-0.000478	0.0000166	-0.0000514	0.0000724	0.000113	-0.0000637	0.000129	0.0000346	-0.0000677	0.0000928	0.0000979	-0.0000565	-0.0000584	0.0000009	-0.0000600	0.0000391	0.0000756	-0.0000671	-0.000494	-0.0000551	0.0000362	0.0000099	0.0000143	0.0000772	0.0000017	0.0000307	-0.0000808	0.0000702	0.000458	-0.0000848	-0.000449	0.0000363	0.0000112	0.000171	0.0000103	-0.0000512	-0.0000848	-0.000469	-0.0000505	-0.0000825	-0.0000619	0.0000106	0.0000977	0.0000143	0.0000398	0.0000058	0.0000119	0.0000199	0.0000767	0.0000972	-0.0000690	0.0000388	0.0000751	-0.0000567	-0.0000600	-0.000443	-0.0000548	0.000131	0.0000987	0.0000026	-0.0000893	0.0000959	0.000198	-0.000497	0.000135	-0.0000576	0.0000024	-0.0000550	-0.0000519	-0.0000595	0.0000749	-0.0000606	0.0000003	-0.0000663	0.0000796	0.0000990	-0.0000862	0.0000149	-0.0000549	-0.0000686	0.000418	0.0000036	0.0000917	0.000184	0.000104	0.0000732	-0.000486	0.0000711	0.0000974	-0.0000587	0.0000707	-0.0000512	0.0000019	0.0000084	0.0000752	0.0000914	0.0000063	0.0000796	-0.0000821	-0.0000807	0.0000393	-0.0000579	0.0000164	-0.0000516	0.0000973	-0.0000653	-0.0000888	0.0000301	0.000134	0.000436	0.0000933	0.0000955	0.0000097	-0.0000875	0.0000076	0.0000191	0.0000941	0.000123	0.0000791	-0.0000514	0.000124	0.0000166	0.0000041	0.0000126	0.0000048	0.000412	0.0000781	0.000197	0.0000096	0.0000923	0.0000058	-0.0000522	0.0000749	0.0000307	-0.000480	0.0000172	0.0000752	-0.0000821	0.0000380	0.0000768	-0.0000830	-0.0000893	0.0000921	0.000433	-0.0000629	-0.0000624	0.0000145	0.0000983	0.0000068	0.0000066	0.0000945	-0.0000831	-0.0000830	-0.0000853	-0.0000656	-0.0000560	0.0000302	-0.0000836	0.0000308	0.000106	-0.0000864	0.000130	0.0000932	-0.0000838	0.0000304	0.0000095	-0.0000814	-0.000489	0.000146	0.0000953	0.000185	0.0000394	0.0000172	-0.0000624	0.000162	0.0000951	0.0000310	0.0000950	0.0000304	0.0000715	0.0000031	-0.000490	-0.000484	0.0000796	0.0000329	0.0000746	0.0000796	0.0000121	0.0000714	-0.000442	-0.0000857	0.000157	0.000145	0.0000955	-0.0000607	0.0000053	0.0000330	0.000439	-0.0000628	-0.0000852	0.0000373	0.000122	0.0000706	-0.0000813	0.0000969	0.0000943	0.000195	0.0000752	-0.000485	0.0000963	0.000118	0.0000184	0.0000964	-0.0000871	0.0000971	0.0000318	0.000167	-0.0000578	0.000109	0.0000136	0.0000731	-0.0000851	0.0000347	-0.000460	0.0000908	0.0000304	-0.0000584	0.000192	-0.0000837	-0.000494	0.0000032	-0.000481	0.0000374	0.0000182	0.0000914	0.0000904	0.0000368	-0.000478	-0.0000694	0.0000322	0.0000027	0.0000759	0.0000373	0.0000315	0.000182	-0.0000580	0.0000061	-0.0000856	0.0000079	-0.000489	0.0000734	0.0000189	0.0000115	0.0000155	0.0000739	0.0000333	0.0000793	0.0000356	0.0000776	0.000177	0.0000980	0.0000991	0.0000911	-0.000463	-0.0000518	0.0000799	0.0000737	0.000416	0.000149	0.0000383	-0.0000584	-0.000465	0.0000030	0.0000108	0.000110	0.000177	0.0000189	0.0000316	-0.000466	-0.0000613	-0.000424	0.000117	0.0000719	-0.0000532	0.0000953	0.0000955	0.0000758	-0.0000552	0.0000027	-0.0000666	-0.0000609	0.0000003	0.000151	0.0000970	0.0000152	-0.0000635	0.0000358	0.0000377	-0.0000574	-0.0000562	0.000136	0.000189	0.0000970	-0.0000621	0.0000963	-0.0000502	0.0000132	0.0000178	0.000128	0.0000035	-0.0000514	0.0000309	-0.0000539	0.0000022	0.0000798	0.0000362	0.0000033	-0.0000691	0.000107	0.0000399	-0.0000808	0.0000049	0.0000313	0.0000734	0.0000387	-0.0000699	0.0000301	0.0000942	0.0000383	-0.000424	0.000106	0.0000932	0.0000002	-0.0000513	0.0000364	0.0000162	0.0000384	-0.000407	-0.0000846	0.0000747	0.0000793	0.0000912	0.0000379	0.0000951	0.0000397	0.0000988	0.000157	0.0000744	0.0000058	0.0000903	0.0000174	-0.000466	0.000459	0.0000196	0.0000766	0.0000785	-0.0000635	-0.0000885	-0.000443	0.0000973	0.0000306	0.0000087	-0.0000594	0.0000056	0.0000197	-0.000491	0.000185	-0.0000634	0.0000034	-0.0000827	-0.0000515	0.0000370	0.0000717	-0.0000601	0.0000768	0.000111	0.0000030	0.000155	0.0000773	-0.0000895	-0.0000608	0.0000984	-0.0000830	-0.0000663	0.000193	-0.0000692	0.0000988	0.0000094	0.0000761	0.0000005	-0.000482	-0.0000861	-0.000444	0.0000789	0.000113	-0.0000632	-0.0000556	-0.0000851	-0.0000576	0.0000027	-0.0000800	0.000133	0.000135	0.000104	0.0000057	0.0000753	0.0000700	-0.000427	-0.0000832	0.000178	0.000418	-0.0000514	0.0000346	0.0000707	0.0000094	-0.0000697	0.000437	-0.0000885	-0.0000889	0.0000726	-0.0000558	-0.0000684	-0.000475	-0.0000529	0.000410	0.0000921	0.0000759	0.0000334	0.0000390	-0.0000559	0.000157	-0.0000551	0.0000934	0.000113	0.0000035	0.0000124	0.000159	0.0000783	0.0000180	0.0000126	0.0000384	0.0000035	0.0000157	-0.000473	0.0000332	0.000159	0.0000068	-0.0000895	-0.0000667	0.0000316	-0.0000616	0.0000719	0.0000958	0.0000992	-0.000426	0.0000155	0.0000317	0.000193	0.0000067	0.0000031	0.0000793	0.000161	-0.000477	0.000431	0.0000925	0.0000357	0.0000068	-0.0000523	0.000137	0.0000015	0.000457	0.0000770	0.0000092	0.0000790	0.000179	0.0000069	-0.0000535	0.0000071	0.0000312	0.0000048	0.000167	0.000152	0.0000122	0.0000364	0.0000743	-0.0000590	-0.0000536	0.0000187	-0.0000509	0.0000127	-0.000402	-0.0000631	-0.000479	0.000164	0.0000317	-0.0000530	0.000141	0.0000007	-0.0000688	-0.000466	0.0000088	0.0000170	-0.0000681	0.0000149	-0.0000627	-0.000490	0.0000312	-0.0000634	-0.0000521	0.0000010	0.0000711	-0.000469	0.0000735	0.0000963	0.0000905	-0.000493	0.0000385	0.000139	0.000196	0.000169	-0.000470	0.0000150	-0.0000538	0.000141	0.0000004	0.0000359	-0.0000568	-0.0000547	-0.0000833	0.0000373	0.0000755	0.0000337	0.000172	-0.0000698	-0.0000826	-0.000498	0.0000904	0.0000907	0.0000990	0.0000757	0.000192	0.000412	0.0000773	0.0000789	0.0000110	-0.0000660	0.0000954	-0.000468	0.0000082	0.0000128	0.000437	0.000121	0.0000741	0.0000982	-0.000449	0.000171	0.0000977	-0.0000860	-0.0000872	0.0000197	-0.0000615	-0.000423	-0.000486	-0.0000649	-0.0000694	0.0000751	0.0000325	-0.0000628	-0.0000656	-0.0000805	0.0000097	-0.0000814	0.0000764	-0.0000686	0.000434	-0.0000641	-0.000402	0.0000179	-0.0000862	-0.0000552	0.000453	0.000435	-0.0000664	0.0000750	-0.0000656	0.0000060	-0.000477	0.0000391	-0.0000527	-0.0000589	-0.0000880	-0.0000556	0.0000327	0.0000958	0.0000983	0.0000337	0.000137	0.0000778	0.0000732	-0.0000697	0.0000780	0.0000727	0.0000795	0.0000394	0.0000966	0.0000095	-0.0000657	-0.0000680	-0.0000646	0.0000086	-0.0000834	-0.0000581	0.0000909	0.000135	0.0000992	-0.0000860	0.0000939	0.0000382	-0.0000582	0.0000090	-0.0000805	-0.0000518	-0.0000584	-0.0000600	-0.000484	0.0000327	0.000438	0.0000391	0.0000107	0.0000339	-0.0000627	0.0000088	0.0000132	0.0000341	0.0000069	-0.0000624	0.000146	-0.0000698	-0.0000594	0.000451	0.0000105	0.000150	0.0000973	-0.0000817	0.0000010	-0.0000501	-0.000470	0.0000763	0.0000923	0.0000934	-0.0000509	0.000458	-0.0000530	0.0000705	0.0000155	0.0000013	0.0000767	0.0000059	0.0000791	-0.0000679	0.0000049	0.0000123	0.0000777	0.0000146	0.000196	0.0000179	0.0000385	-0.0000886	0.000431	0.000137	-0.0000566	0.0000175	0.000111	0.0000369	0.000146	0.000152	0.0000195	-0.000444	0.0000173	0.000431	0.0000305	0.0000721	-0.0000534	-0.000422	-0.0000862	-0.0000678	0.0000916	-0.0000511	-0.000482	0.0000046	-0.0000658	0.0000942
-0.0000673	0.000199	-0.0000507	0.0000099	-0.0000809	0.0000119	-0.0000821	-0.0000884	-0.0000645	-0.0000899	0.0000741	0.0000791	0.0000320	-0.0000637	0.0000044	-0.0000608	0.000179	0.0000122	0.0000775	0.000148	0.0000000	-0.0000838	0.0000183	0.0000035	-0.0000820	0.0000333	0.0000980	-0.0000555	0.0000972	-0.0000679	0.0000112	-0.0000611	-0.0000648	-0.0000545	0.0000920	-0.0000888	0.0000980	0.0000119	-0.0000852	0.0000908	-0.0000510	0.0000389	0.0000936	-0.0000543	0.0000380	-0.0000855	-0.0000625	0.0000928	-0.0000612	-0.0000605	0.0000964	0.0000959	0.000456	-0.000422	0.0000756	0.0000060	0.0000138	-0.0000866	0.000128	0.000413	-0.0000515	0.000147	-0.0000517	0.0000085	0.0000129	0.0000050	0.0000193	-0.0000826	-0.0000507	-0.0000640	-0.0000619	0.0000714	0.0000133	0.000457	0.000430	-0.0000661	-0.0000864	0.0000307	-0.000421	0.0000790	0.0000947	0.0000170	0.0000999	-0.000402	0.0000182	0.0000943	0.0000300	0.0000752	-0.0000819	0.0000197	0.0000762	-0.0000541	0.0000965	0.0000907	0.000111	0.0000988	-0.0000626	-0.0000821	-0.0000864	0.000112	0.0000788	0.0000747	0.0000375	-0.0000572	0.0000155	0.000412	-0.0000514	-0.000446	-0.0000669	-0.0000535	0.0000073	0.0000086	0.000415	-0.000406	-0.0000663	0.0000728	0.0000039	-0.0000549	-0.0000680	0.0000751	0.0000785	0.000184	0.0000355	-0.0000600	0.000187	-0.000478	0.0000979	0.0000024	-0.0000674	0.0000141	-0.0000622	-0.0000578	0.000145	-0.0000836	0.000192	-0.0000886	-0.0000676	-0.0000833	0.0000747	-0.000489	-0.0000615	-0.0000517	-0.0000694	0.000169	0.0000170	-0.0000870	0.0000384	0.0000125	-0.0000528	-0.0000689	0.0000182	0.0000986	0.0000094	0.0000968	0.0000392	-0.0000614	0.0000310	0.0000797	0.000450	-0.0000893	0.0000046	0.0000006	-0.0000669	0.0000131	0.0000931	-0.0000690	0.0000118	-0.0000835	0.0000066	0.000432	0.0000084	0.0000097	-0.000406	0.0000377	-0.0000547	0.0000062	-0.0000621	0.0000150	-0.0000517	0.0000080	0.000137	0.0000051	0.0000127	0.0000909	0.000162	0.0000970	0.0000036	-0.0000518	0.0000192	0.0000981	0.0000931	0.0000021	0.0000900	0.0000042	0.000181	0.0000124	-0.0000678	0.000129	0.0000364	-0.000497	-0.0000665	0.0000743	0.0000143	-0.000447	0.000419	0.0000361	-0.0000593	-0.0000697	-0.0000829	-0.000495	0.0000062	-0.0000597	0.0000709	0.0000047	0.0000195	-0.000476	0.000450	0.000459	0.0000717	-0.0000547	0.0000333	-0.0000829	0.000122	0.0000143	0.0000058	0.0000341	0.0000017	0.000191	0.000139	0.0000792	0.0000758	0.0000314	-0.0000537	-0.0000643	0.0000916	-0.0000545	0.0000160	0.0000709	-0.0000590	0.0000181	0.000434	0.000190	0.0000022	-0.0000515	0.0000023	0.000151	0.0000793	0.0000318	-0.0000890	0.0000065	-0.0000548	-0.000408	-0.000481	-0.0000604	-0.0000657	0.0000717	0.000164	-0.000422	0.0000139	0.000104	-0.000466	-0.0000568	-0.0000621	0.000128	0.0000920	-0.0000821	-0.000495	0.0000137	0.0000948	-0.0000535	0.0000369	-0.0000549	-0.0000552	0.0000924	0.000459	0.0000945	0.0000359	-0.000403	-0.000427	0.0000399	-0.0000522	0.0000060	0.0000746	0.0000984	-0.0000856	-0.0000813	-0.0000867	-0.0000659	0.0000994	0.0000189	0.0000929	0.0000365	-0.0000693	0.0000327	-0.0000673	0.000114	-0.0000684	-0.0000671	0.000165	-0.0000835	0.0000391	-0.0000523	-0.0000574	0.000171	-0.000460	-0.0000516	0.0000323	-0.0000850	0.0000364	0.0000181	0.0000095	-0.000492	0.0000354	-0.0000553	0.0000343	-0.000403	0.0000745	-0.0000641	-0.000444	0.0000197	0.0000058	0.0000784	0.0000732	0.0000133	0.0000364	0.000133	-0.0000656	0.0000996	0.000419	0.0000788	0.0000940	0.0000341	0.0000182	0.0000048	0.0000179	-0.0000686	-0.0000650	0.0000129	-0.0000511	-0.0000879	0.000435	0.0000169	0.000130	0.0000356	0.0000970	0.0000178	0.0000956	-0.0000843	-0.0000669	-0.0000827	-0.000469	0.000431	0.0000959	-0.000446	-0.0000652	-0.0000565	-0.0000809	0.000100	0.0000310	-0.0000661	0.0000171	0.0000084	0.0000381	0.0000183	-0.000407	0.0000124	-0.0000652	0.0000162	0.0000110	0.000434	0.000457	-0.000480	0.000192	-0.0000866	0.0000986	-0.0000612	-0.0000612	-0.000484	0.0000014	0.0000747	-0.000460	0.000164	0.000115	-0.0000677	-0.0000503	0.0000385	0.0000010	0.0000046	-0.0000581	-0.000488	0.0000109	0.0000033	0.0000791	0.0000734	0.0000761	0.0000118	-0.0000595	-0.0000676	0.0000949	-0.0000549	0.0000031	0.0000942	-0.0000569	0.0000762	0.000432	-0.0000892	0.0000120	0.000417	0.0000082	-0.0000849	0.0000014	0.0000995	0.0000124	0.000115	0.000160	-0.000488	0.0000162	0.000174	0.0000748	-0.0000806	-0.000429	-0.0000873	-0.0000522	-0.0000658	0.0000103	0.0000132	0.0000161	0.0000153	0.000131	-0.0000632	0.0000983	0.0000019	0.0000192	-0.000421	0.0000988	0.0000138	0.0000716	-0.0000501	-0.0000628	-0.0000833	0.0000751	-0.0000687	0.0000744	0.0000077	0.000144	0.0000071	-0.000426	0.000191	0.0000959	-0.0000862	-0.000489	0.0000968	0.0000114	-0.0000683	0.0000081	0.000111	-0.0000800	0.0000086	-0.0000638	0.0000309	0.0000163	0.0000745	0.0000038	0.0000300	0.0000007	0.0000731	-0.000404	-0.0000564	-0.0000685	0.0000344	0.0000193	0.000178	0.000436	0.0000374	-0.0000507	0.0000719	0.0000988	0.000433	0.0000719	-0.0000597	-0.0000621	-0.000475	0.000160	-0.0000898	0.0000905	0.0000338	0.0000135	-0.0000837	0.0000142	0.0000999	-0.000408	0.0000774	0.000170	0.0000706	-0.0000869	0.0000340	0.0000709	-0.000482	0.0000799	0.0000725	0.000137	0.000158	0.0000732	0.0000197	0.0000069	0.0000728	0.000418	-0.0000617	0.0000395	0.000168	-0.0000514	0.0000040	-0.0000612	0.0000131	0.0000024	-0.0000528	0.0000771	0.0000119	-0.0000897	-0.0000511	-0.0000552	0.0000323	-0.0000873	-0.0000875	-0.000479	-0.0000567	-0.0000899	0.0000166	0.0000738	0.0000045	0.000177	0.0000726	0.0000364	0.0000329	0.0000956	0.0000110	0.0000065	0.0000116	0.0000993	0.0000993	0.0000709	-0.000427	-0.0000620	-0.0000525	0.0000199	0.000171	-0.0000531	-0.000475	0.0000705	0.0000972	-0.000486	0.000148	-0.0000500	0.0000172	0.0000139	-0.000495	-0.000485	0.0000374	-0.0000642	0.0000974	0.0000327	-0.000487	-0.0000571	-0.0000840	0.0000708	-0.0000697	-0.0000521	0.000165	0.0000732	0.000115	-0.0000819	-0.0000694	0.000176	-0.0000584	0.0000771	0.0000303	0.000183	-0.0000523	0.000197	-0.000472	0.0000779	-0.000497	0.0000170	0.0000079	0.0000173	0.0000076	0.0000091	-0.000480	0.0000052	0.0000396	0.0000703	0.0000714	-0.000445	0.000147	0.0000926	-0.0000622	-0.0000803	-0.0000525	0.0000044	0.0000184	0.0000706	0.000101	-0.0000834	0.0000782	0.0000931	0.0000711	0.0000051	0.0000107	-0.0000574	0.000137	0.0000971	-0.0000859	0.0000188	0.0000150	0.0000015	0.0000975	-0.0000698	-0.0000547	-0.0000643	-0.0000867	0.0000988	0.0000035	-0.0000899	-0.000482	-0.0000506	-0.0000870	-0.0000881	0.000129	0.0000124	0.0000021	0.0000370	-0.0000506	0.0000720	0.0000005	-0.0000654	0.0000062	0.0000335	-0.0000880	-0.0000582	-0.0000835	0.000184	0.000101	-0.0000517	-0.0000847	0.0000757	0.0000365	0.0000029	0.000125	-0.000494	-0.000471	-0.0000519	0.000174	0.000111	0.0000087	0.0000049	0.0000199	-0.000472	-0.0000680	-0.0000899	-0.0000676	0.0000952	-0.0000644	-0.0000533	-0.0000625	0.0000798	-0.0000545	0.000417	0.0000080	-0.0000874	0.0000038	0.0000005	-0.000495	-0.0000626	-0.0000594	0.0000098	0.0000138	-0.000461	0.000160	0.0000171	0.0000081	0.0000907	0.0000034	-0.000400	-0.0000661	0.0000384	0.0000123	0.0000781	-0.0000513	-0.0000823	0.0000036	-0.0000629	-0.0000528	0.0000346	0.000180	0.0000164	-0.0000518	0.000135	0.0000112	-0.0000694	0.0000108	-0.000486	0.000162	0.0000968	-0.000498	0.000149	0.000452	0.0000337	0.000102	0.0000084	0.0000381	0.0000302	0.0000994	0.0000324	-0.0000621	-0.0000524	-0.000485	0.0000719	0.0000131	-0.0000863	0.0000187	0.0000018	0.0000958	0.0000069	0.000142	0.0000116	0.0000795	0.0000325	0.0000708	0.0000064	0.0000097	0.0000375	0.0000954	0.0000781	0.0000300	-0.0000577	0.0000321	-0.0000825	0.0000753	-0.0000875	-0.0000580	-0.0000558	-0.0000557	0.0000109	0.0000027	0.000109	0.0000041	0.0000979	0.0000746	-0.0000571	0.0000337	-0.0000578	-0.000409	-0.0000541	-0.0000650	-0.000475	0.0000915	0.0000012	-0.0000661	0.0000925	0.000118	-0.0000863	0.0000394	0.000119	-0.0000585	0.0000044	0.0000154	0.0000193	0.000438	0.000186	0.0000355	-0.0000611	0.0000713	0.0000059	0.0000051	-0.0000605	-0.0000839	-0.0000868	0.000185	-0.000482	-0.0000654	0.0000788	-0.0000531	0.000435	0.0000069
-0.0000844	0.0000162	0.0000916	-0.000471	-0.0000500	0.0000085	-0.0000879	0.000157	0.0000177	0.0000394	0.0000069	-0.0000895	0.0000027	0.0000334	0.0000122	0.0000904	0.0000157	0.0000065	0.0000112	0.0000379	0.0000718	-0.0000694	-0.0000809	0.0000188	0.0000337	0.000182	-0.0000641	0.0000771	0.0000702	0.0000077	0.000138	-0.0000869	0.0000316	0.0000920	0.0000317	0.0000777	0.0000380	0.0000710	0.0000065	0.0000770	0.0000077	0.0000154	-0.0000676	0.0000082	0.0000983	-0.0000888	0.0000743	-0.000462	0.000181	-0.000487	-0.0000691	0.0000994	-0.0000516	-0.0000530	0.0000029	0.0000956	0.0000756	-0.000460	-0.0000891	0.000155	0.0000910	0.0000098	0.0000327	0.0000387	0.0000787	-0.0000509	0.0000986	0.000413	-0.0000835	0.000181	-0.000498	-0.0000572	-0.0000828	0.0000150	0.0000924	0.0000771	0.000116	0.0000160	0.0000136	0.0000317	0.0000080	0.0000181	0.0000153	0.0000003	-0.0000846	-0.0000631	-0.000429	0.0000190	-0.0000612	0.0000192	0.0000903	0.0000730	0.0000782	-0.0000545	0.0000966	0.0000103	0.0000794	0.0000367	0.0000181	-0.0000816	0.0000715	0.0000178	0.0000385	-0.0000616	-0.0000567	-0.0000814	0.0000781	-0.0000821	-0.0000520	0.0000976	0.000159	0.0000086	-0.0000619	-0.0000531	-0.000479	0.0000971	0.0000169	0.0000918	0.0000316	-0.0000606	0.0000304	0.0000727	0.0000007	0.0000394	-0.0000524	0.0000111	-0.000473	-0.0000522	0.000457	0.0000313	-0.0000652	0.0000309	0.0000319	-0.0000872	-0.0000611	0.0000964	0.0000705	-0.0000847	-0.0000576	-0.0000601	0.000433	-0.0000693	-0.0000819	0.0000122	0.0000752	0.000144	-0.0000593	-0.0000686	0.000156	0.000124	0.0000056	0.0000790	0.0000788	0.0000321	-0.0000826	-0.0000599	0.0000372	0.0000774	-0.0000658	0.000437	0.0000356	-0.0000661	-0.0000836	0.0000006	-0.0000644	-0.0000614	0.0000386	-0.0000588	0.000101	-0.0000822	-0.0000880	0.000149	0.000453	0.0000102	0.0000905	0.0000117	0.0000760	0.0000949	-0.0000585	0.0000112	0.0000755	0.0000944	0.000105	0.0000951	0.000171	0.0000727	0.0000146	0.0000087	0.0000133	-0.0000518	0.000117	0.0000064	0.0000012	0.0000111	-0.0000624	-0.0000578	0.000112	0.000122	0.0000392	0.0000339	0.0000963	-0.000429	0.0000136	-0.0000613	0.0000718	-0.0000551	0.0000352	-0.0000573	0.0000789	0.000455	-0.000480	0.0000985	0.0000932	-0.000497	0.000433	-0.000498	0.0000037	0.0000774	-0.0000594	0.000185	0.0000034	0.0000339	-0.0000648	0.000454	-0.0000681	-0.0000507	0.0000064	-0.0000601	0.0000314	-0.0000516	-0.0000604	0.000161	0.0000046	0.0000968	-0.0000899	0.0000066	0.0000133	0.0000062	0.0000753	-0.000440	-0.0000821	-0.0000877	0.0000163	0.0000908	-0.0000510	0.0000189	0.000166	-0.000471	-0.0000656	0.0000791	0.0000737	0.0000752	-0.0000896	-0.0000880	0.0000106	0.0000050	0.0000374	0.0000702	-0.000499	-0.0000802	0.000154	0.0000714	-0.0000656	-0.000465	0.000439	0.000160	-0.0000886	0.0000018	0.0000042	0.0000057	0.0000331	0.000184	0.000127	-0.0000859	0.0000071	0.0000705	-0.0000884	0.0000300	0.0000948	0.0000075	0.000122	0.0000752	-0.0000593	-0.0000834	0.0000989	0.0000947	0.0000042	-0.0000511	-0.0000674	0.0000767	0.0000309	0.0000743	0.0000013	0.0000039	0.0000768	-0.0000656	0.000169	-0.0000542	-0.0000519	0.0000752	-0.0000843	0.0000952	0.0000186	0.000139	0.0000750	0.000138	0.0000021	-0.000479	-0.0000604	0.0000003	0.0000715	-0.0000646	-0.0000820	-0.0000895	0.0000125	-0.0000647	0.0000112	0.000419	0.0000760	0.0000357	0.0000181	-0.0000623	-0.000471	-0.0000578	0.0000173	0.0000327	-0.000497	-0.0000813	0.0000354	0.000145	0.0000785	-0.0000808	0.0000797	0.0000767	0.0000170	-0.0000691	0.0000726	-0.000483	-0.0000852	0.0000186	0.000109	0.0000012	0.000100	0.0000130	-0.0000500	0.000117	0.0000766	0.0000726	-0.0000816	-0.000465	0.0000198	0.0000399	0.000177	0.0000729	0.0000353	-0.0000550	-0.0000514	0.0000083	0.0000108	-0.0000616	0.000439	0.0000142	-0.0000881	-0.000490	0.000136	0.0000954	0.0000977	-0.0000575	0.0000319	0.0000758	0.0000137	0.0000949	0.0000328	-0.0000671	-0.0000585	-0.0000531	0.0000756	0.000155	-0.0000665	-0.0000665	-0.000471	0.0000165	0.0000999	0.0000176	0.000457	0.0000056	-0.0000678	0.000456	0.000157	-0.0000695	-0.0000659	0.0000189	0.0000791	0.000175	0.000419	0.0000790	-0.0000678	0.000166	-0.0000687	0.0000984	-0.0000523	0.0000150	-0.0000558	-0.0000676	-0.0000582	0.0000100	-0.0000850	0.0000174	0.0000359	-0.0000619	0.000123	0.0000182	0.0000954	-0.0000524	0.0000911	0.0000756	-0.0000513	-0.0000847	0.0000960	-0.000402	0.0000138	0.000149	0.0000320	-0.000406	-0.0000592	0.0000995	0.0000014	0.0000398	-0.0000512	-0.0000869	0.0000908	0.0000718	-0.000465	0.0000120	0.0000771	0.000418	-0.000498	0.0000717	0.000115	-0.0000866	0.000184	0.0000943	-0.0000872	0.000164	0.0000709	0.0000183	0.0000747	0.0000780	-0.0000677	-0.0000600	0.0000719	-0.0000876	-0.0000848	0.000145	0.000177	0.000140	-0.0000532	-0.000469	-0.0000557	0.000143	-0.000483	0.0000139	-0.0000877	0.0000783	0.000105	0.0000970	0.0000024	0.0000080	0.0000007	0.0000911	0.000146	-0.0000695	0.0000302	-0.0000683	0.0000008	0.0000344	-0.0000655	0.0000132	-0.0000517	0.0000157	0.000174	-0.0000533	0.0000148	0.0000741	-0.0000848	0.0000394	-0.000489	-0.000488	0.0000990	-0.0000513	-0.0000685	-0.0000665	-0.0000631	-0.000489	0.0000095	0.0000923	0.000171	-0.0000690	-0.0000597	0.0000349	0.0000198	0.000190	-0.0000679	-0.000471	0.0000021	0.000450	-0.0000586	0.0000920	-0.0000850	0.000187	0.000196	0.0000159	0.000458	-0.0000547	0.0000348	0.0000710	0.0000163	-0.0000551	0.0000396	-0.0000690	-0.000472	-0.0000893	0.000172	0.0000368	-0.0000600	-0.0000812	0.0000763	0.0000055	0.0000175	0.0000020	-0.0000664	-0.0000519	0.000437	0.0000100	0.0000191	-0.0000896	0.0000340	-0.0000568	0.0000104	-0.0000603	-0.0000660	0.0000754	-0.0000664	0.0000313	0.0000772	-0.0000620	0.000414	-0.0000682	-0.0000572	0.0000035	0.0000014	0.0000797	-0.0000837	0.0000324	-0.000488	0.0000777	0.0000150	0.0000752	-0.0000592	0.0000022	-0.0000577	0.0000396	0.0000365	0.0000986	0.0000173	-0.0000592	0.000131	-0.0000514	-0.0000844	0.0000018	0.0000119	-0.0000866	0.0000762	0.0000392	0.000177	0.0000705	0.0000086	0.0000752	0.000437	0.0000192	0.0000147	0.0000965	0.000139	-0.000402	-0.000475	-0.0000504	-0.0000649	0.0000030	-0.0000884	0.0000905	0.0000142	-0.0000517	0.0000072	-0.0000856	-0.0000816	0.0000130	0.0000704	0.0000335	0.0000095	0.000144	-0.0000550	0.000163	0.0000386	0.0000361	0.000170	0.0000910	0.0000080	-0.000460	-0.0000826	0.000105	0.0000792	0.000167	-0.000404	-0.0000505	0.000113	0.0000979	0.000171	0.0000926	0.0000985	0.0000732	-0.0000654	0.000453	-0.000428	0.000129	0.0000061	-0.0000610	0.0000309	-0.0000689	0.000190	0.0000995	-0.0000604	0.0000956	-0.0000866	0.0000998	0.0000945	0.0000339	-0.0000835	0.0000316	0.0000708	0.0000770	-0.0000573	-0.0000627	-0.0000570	0.000415	0.0000976	-0.0000583	-0.0000591	0.0000046	0.0000043	0.0000391	0.000134	-0.0000670	-0.0000512	0.000100	0.000411	0.0000003	-0.0000612	0.0000370	0.000198	0.0000016	0.0000706	-0.0000512	-0.0000669	0.0000059	0.0000701	0.0000038	-0.0000682	0.0000018	0.0000074	0.0000032	0.0000704	0.0000395	0.0000092	0.000126	0.0000033	0.000157	-0.000462	0.0000173	-0.0000876	0.0000715	0.0000995	0.0000044	-0.0000847	0.000434	0.000419	0.0000110	0.0000029	0.0000046	0.0000381	0.000412	0.0000710	-0.000488	-0.0000843	0.000197	0.000152	0.0000334	-0.0000589	0.000188	0.0000962	0.000458	-0.0000620	0.0000148	0.000136	0.000455	0.000438	0.0000746	-0.0000654	0.0000185	0.0000144	-0.0000892	-0.000449	-0.0000538	-0.0000571	-0.0000526	0.0000395	0.0000333	0.0000952	0.0000964	0.000189	-0.000463	0.0000170	-0.0000864	-0.000485	-0.0000674	0.000152	0.0000794	-0.0000572	0.0000705	0.0000172	0.0000181	0.0000927	0.0000172	-0.0000888	-0.000491	0.0000701	0.000172	0.0000735	-0.0000539	-0.000461	-0.000481	0.0000988	0.0000742	0.0000972	-0.000487	0.0000011	0.0000099	0.000159	-0.0000812	0.0000142	0.000152	0.0000332	-0.000499	0.000171	0.0000924	0.0000959	-0.0000863	0.0000011	0.0000966	-0.000405	0.000173	-0.0000892	-0.0000871	0.0000341	-0.000483	0.0000099	0.000110	-0.0000832	0.0000957	-0.0000811	0.000115	0.0000078	0.000111	0.0000907	0.0000058	-0.0000672	0.0000774	0.0000766	-0.0000854	0.0000988	-0.0000619	0.0000071	0.0000774	0.0000953	0.0000332
0.0000999	-0.000445	-0.0000640	-0.0000581	0.0000785	0.000157	-0.000427	-0.000465	0.0000911	-0.0000558	-0.0000582	0.0000354	0.0000071	0.000195	0.0000987	0.0000907	0.0000965	0.0000101	0.000109	0.0000344	-0.0000819	0.0000972	-0.0000523	0.0000324	0.000113	0.0000174	0.000187	0.000452	-0.0000582	-0.0000606	0.0000330	0.0000346	0.0000082	0.0000159	0.0000048	0.0000793	-0.000428	0.0000110	-0.0000825	-0.0000549	0.000456	0.0000086	-0.0000594	0.0000779	0.0000381	0.000169	-0.0000601	0.0000943	0.0000745	0.000117	0.000121	-0.000484	-0.0000691	0.0000013	-0.0000548	-0.0000885	-0.000420	-0.0000677	0.0000343	-0.0000656	-0.000472	-0.000443	0.0000193	0.000131	-0.0000851	-0.0000505	0.000410	-0.0000553	0.0000390	0.0000901	0.0000005	0.000144	0.0000745	-0.0000695	0.0000049	-0.0000500	0.0000343	0.0000937	0.0000023	0.0000389	-0.0000674	-0.0000547	-0.0000532	-0.0000889	0.000111	0.0000986	0.0000786	0.0000108	0.0000719	-0.0000546	0.0000361	0.0000341	-0.0000837	0.0000933	-0.0000829	0.0000985	0.0000174	0.000436	0.0000393	0.0000011	0.0000334	-0.0000828	-0.0000607	0.000188	-0.0000610	0.0000774	0.0000331	-0.0000582	0.0000126	0.0000386	0.0000793	-0.000487	0.0000966	0.000458	-0.0000886	0.0000341	0.0000756	0.0000996	0.0000397	0.0000984	0.0000370	0.0000192	0.0000961	0.0000928	0.0000762	0.0000035	-0.000478	0.0000166	0.0000368	0.000118	0.0000777	-0.0000662	0.0000702	0.0000730	0.0000985	0.0000165	-0.0000890	0.000107	-0.000420	0.000455	0.0000120	-0.0000524	0.0000144	0.0000182	0.0000726	-0.0000827	-0.0000544	0.0000378	0.000160	0.0000073	0.0000090	0.0000784	0.0000317	0.0000199	0.0000370	-0.0000828	0.0000036	-0.0000825	0.000145	-0.000420	-0.0000526	0.0000778	-0.0000592	0.0000302	0.0000092	-0.0000640	-0.0000510	0.000125	0.0000738	0.000419	-0.0000887	-0.0000562	0.000128	0.0000153	-0.0000572	0.0000121	0.0000197	0.0000198	0.0000102	0.0000712	0.0000304	0.0000337	0.000118	-0.0000697	-0.0000879	-0.0000540	0.0000182	-0.000495	0.000415	-0.0000849	0.0000704	0.0000965	-0.0000695	0.0000744	0.0000155	0.000119	0.0000339	-0.0000504	-0.0000513	-0.0000605	-0.0000898	-0.0000641	-0.0000623	-0.0000859	-0.000447	0.0000760	0.0000990	0.0000030	-0.0000691	0.000100	-0.0000698	-0.000497	0.0000965	0.000127	0.0000776	0.0000306	-0.000427	0.0000055	0.000169	0.0000062	0.0000919	0.0000026	0.000437	0.0000958	0.0000354	-0.0000546	-0.0000671	0.0000771	0.0000765	-0.000476	0.0000719	0.0000947	-0.0000612	0.0000947	0.0000025	0.0000953	-0.000461	0.0000799	0.0000768	0.000414	-0.0000563	-0.0000857	0.0000903	-0.0000810	0.0000741	0.0000179	0.0000937	0.0000043	-0.0000690	-0.0000651	0.0000013	0.000436	-0.0000853	0.0000378	0.0000347	0.000416	-0.0000840	-0.0000870	0.0000097	-0.0000885	0.0000191	0.0000392	0.0000110	0.000166	-0.0000687	0.000431	0.0000316	0.0000786	0.0000187	0.0000710	0.000437	-0.0000560	0.0000746	-0.0000548	0.0000197	0.0000713	-0.0000668	-0.0000608	0.0000111	0.0000932	0.0000192	0.0000703	-0.000409	0.0000983	-0.000406	0.0000326	0.0000061	0.0000975	0.0000009	0.0000303	0.0000093	0.000113	0.0000985	0.0000091	0.000459	0.0000189	-0.000484	-0.000423	-0.0000613	0.000121	-0.0000525	0.0000926	0.0000910	0.0000783	-0.0000534	0.000183	-0.000402	0.0000998	0.0000722	0.000451	-0.0000667	0.0000988	-0.0000651	0.0000919	0.0000377	0.0000776	0.0000705	0.0000704	-0.0000528	0.0000974	0.0000756	-0.0000861	0.000430	0.0000918	0.0000326	0.0000709	-0.000400	0.0000040	-0.000466	0.000110	0.000115	-0.0000658	0.000453	-0.0000690	0.0000712	0.000198	0.000163	0.0000045	-0.0000699	0.0000349	0.0000196	0.0000031	-0.0000532	0.0000064	-0.0000541	-0.0000560	0.000170	-0.0000534	-0.0000610	-0.000492	0.000142	-0.0000891	-0.0000600	0.0000076	-0.000480	-0.0000548	-0.000447	0.0000788	0.000135	0.0000023	0.000149	-0.000424	0.0000762	0.0000981	0.0000381	-0.000401	0.0000028	-0.0000616	0.0000070	-0.0000509	0.0000329	-0.0000839	0.0000926	0.0000101	0.0000175	-0.000491	0.0000182	-0.0000652	0.0000107	-0.0000841	-0.0000887	0.000459	0.000156	0.0000047	-0.000404	0.0000320	0.0000777	0.0000751	-0.0000560	-0.000481	0.0000979	0.0000902	0.0000393	0.000194	0.0000927	-0.0000830	-0.0000814	0.0000199	0.0000153	-0.0000873	-0.0000853	-0.0000647	-0.0000534	0.000182	-0.000448	-0.0000632	-0.0000564	0.0000398	0.0000984	0.0000027	0.000129	0.0000709	-0.0000550	0.0000964	-0.0000588	-0.0000622	0.0000330	-0.000420	-0.000460	-0.0000652	-0.000446	-0.0000593	0.0000199	0.000183	0.0000985	0.0000068	-0.0000562	-0.000403	0.0000194	0.000123	0.0000966	0.0000982	-0.0000599	0.0000348	-0.0000838	-0.0000893	-0.0000596	-0.000406	-0.0000611	-0.0000579	0.0000948	0.0000935	0.000159	0.0000138	0.0000029	0.0000043	-0.000401	0.0000954	0.000125	-0.0000655	0.0000005	-0.0000594	0.000136	-0.0000541	0.000415	-0.0000688	0.0000311	-0.0000880	0.0000042	0.000124	0.0000351	-0.000409	0.000103	-0.000480	0.0000379	0.0000301	0.0000116	-0.0000845	0.000458	0.0000765	0.0000134	-0.0000663	0.0000777	0.0000362	0.0000907	0.0000007	0.0000926	0.000459	-0.0000888	-0.0000557	0.0000976	0.0000016	0.0000799	-0.0000512	-0.000499	0.0000927	0.0000976	0.0000179	-0.0000639	0.000192	-0.0000596	0.000146	0.0000177	0.0000051	0.0000319	-0.0000872	0.0000381	0.0000316	0.0000795	-0.0000893	-0.0000859	0.0000718	0.000194	-0.0000530	0.0000190	0.0000952	0.0000009	0.0000735	0.0000923	-0.0000865	0.000112	0.0000372	0.0000944	0.0000031	-0.0000833	-0.0000695	0.000127	0.0000961	-0.000420	0.0000953	-0.0000654	-0.000407	-0.000468	-0.0000642	-0.0000804	0.0000037	-0.0000629	0.0000156	0.0000764	0.0000746	-0.0000549	-0.0000504	0.0000174	-0.0000807	0.0000725	0.0000721	0.0000135	-0.0000655	0.000190	0.000152	-0.0000809	-0.0000699	0.0000723	-0.000440	-0.0000591	-0.0000531	-0.000424	-0.000493	0.0000088	0.0000178	0.000412	0.0000104	0.0000754	0.0000927	0.0000944	-0.0000618	0.0000993	0.0000146	-0.0000865	0.000161	0.0000951	0.0000978	-0.000489	0.000194	0.0000000	0.0000729	0.0000981	0.0000154	0.0000708	0.0000172	-0.0000881	-0.0000858	0.000125	0.0000119	0.0000171	0.0000138	0.0000900	-0.0000819	-0.0000584	0.000153	0.0000792	0.0000129	0.0000038	-0.0000808	0.0000126	0.0000071	0.000189	0.000110	0.000116	0.000190	0.0000322	0.0000712	-0.0000808	-0.0000672	0.0000304	0.0000794	0.0000900	-0.0000892	0.0000134	-0.0000693	0.0000089	0.0000077	0.0000980	0.0000036	0.0000173	0.0000169	0.0000364	0.0000963	-0.0000621	-0.0000585	-0.0000624	0.0000047	-0.0000613	-0.000425	-0.0000567	0.000194	0.0000949	0.0000386	0.0000704	0.0000922	-0.0000676	0.0000181	-0.0000899	0.0000344	0.000178	-0.0000664	0.0000064	0.0000071	0.0000716	-0.000497	0.0000336	0.0000381	-0.0000828	-0.0000582	-0.0000691	-0.000479	0.000193	0.0000054	0.0000339	-0.0000884	0.000453	-0.000409	-0.0000829	-0.0000819	-0.0000802	0.0000938	0.000451	-0.000408	0.0000908	0.0000731	0.0000174	-0.0000869	0.0000111	-0.0000561	0.000132	0.0000189	0.000188	0.000113	0.0000710	0.0000334	-0.0000890	0.000176	0.0000712	-0.000496	0.000436	0.0000760	0.0000791	-0.0000819	0.000131	0.0000193	-0.0000698	0.0000079	0.0000752	-0.0000628	-0.0000855	0.0000105	0.0000333	0.0000796	-0.000482	0.0000042	-0.000476	0.000130	-0.0000803	0.000122	-0.0000860	0.0000937	-0.000469	0.0000965	-0.000441	-0.000460	0.0000080	0.000458	-0.0000598	0.0000938	-0.000441	0.0000040	0.0000702	-0.000499	0.000145	0.000171	0.0000975	-0.0000536	0.0000998	0.0000039	0.0000914	0.0000035	0.0000909	0.0000190	0.0000909	0.0000329	0.0000762	0.000111	-0.0000640	0.0000386	0.0000120	0.0000796	0.0000353	-0.0000528	0.0000734	-0.000468	0.000414	-0.000407	0.0000766	0.0000968	-0.000402	0.0000764	-0.0000883	-0.0000551	0.0000031	-0.0000823	0.0000349	0.0000111	-0.0000895	0.0000747	0.0000954	-0.0000648	0.0000147	-0.0000692	-0.0000674	0.0000381	0.000451	0.0000778	0.0000017	-0.0000644	0.0000075	0.0000081	0.000439	0.000178	-0.0000675	0.0000993	-0.0000808	-0.0000816	0.0000001	-0.0000545	-0.0000516	0.0000121	0.000124	-0.0000583	-0.0000661	0.0000175	-0.0000522	0.0000909	-0.0000522	0.0000703	0.0000377	-0.0000678	0.000187	0.0000716	0.0000101	-0.0000632	0.0000312	-0.0000524	0.0000002	0.0000041	0.0000168	0.0000952	0.0000702	0.000130	0.0000170	0.0000196	0.0000760	0.0000180	0.0000726	0.000102
-0.0000886	0.0000932	-0.0000842	-0.0000524	0.0000939	0.0000328	0.000439	0.000159	0.0000785	-0.0000617	-0.0000812	0.000143	0.0000012	0.0000364	0.0000077	0.0000133	-0.0000874	0.000166	-0.0000646	-0.0000692	0.000191	0.0000900	0.0000327	-0.0000652	0.0000747	0.0000198	0.0000358	0.0000910	0.0000706	0.000135	0.0000042	0.000433	0.0000389	0.0000912	-0.0000593	0.0000040	0.0000005	-0.0000878	-0.0000610	-0.000483	0.0000137	-0.0000807	0.0000703	-0.0000875	0.0000085	-0.0000609	-0.000425	0.0000030	0.0000179	0.0000147	-0.0000660	0.0000309	0.0000916	-0.0000896	-0.000474	0.0000768	-0.0000630	0.000106	0.000159	0.000148	0.0000927	0.000197	-0.0000659	0.0000169	0.0000915	0.0000975	0.000191	-0.0000891	0.0000104	0.000144	0.000160	0.0000319	0.0000700	0.0000991	-0.0000682	-0.0000566	0.0000100	0.000112	0.000147	0.000122	0.0000388	0.0000310	0.0000369	0.000163	0.000197	-0.000481	0.0000170	0.0000174	0.0000041	0.0000109	-0.0000654	0.0000182	-0.000407	-0.0000630	0.0000183	-0.0000541	0.0000115	0.0000175	-0.0000586	0.0000093	-0.000406	0.0000183	-0.0000633	0.000438	-0.0000559	0.0000781	0.0000967	-0.000477	0.000120	-0.0000891	0.0000386	0.0000058	0.0000718	0.0000957	-0.000401	0.0000102	0.000431	-0.0000528	0.0000914	-0.0000656	-0.0000627	0.000438	0.0000382	0.000149	0.0000137	0.0000706	0.0000124	-0.0000872	0.0000021	-0.0000899	-0.000470	-0.0000822	-0.0000686	0.000456	0.0000128	0.0000003	0.0000331	-0.0000510	-0.0000624	0.0000160	-0.0000503	-0.000492	0.0000759	-0.0000552	-0.0000612	0.000141	-0.0000827	0.0000793	-0.0000812	0.000178	0.000111	0.0000145	-0.0000534	-0.0000821	-0.0000571	0.0000706	0.0000971	-0.000426	-0.0000620	0.0000729	-0.0000677	-0.000466	-0.0000529	-0.0000884	0.0000739	0.0000799	0.000439	0.0000950	0.0000302	-0.000466	0.000103	-0.0000598	0.0000176	0.000155	-0.000409	-0.0000629	-0.000403	-0.0000586	-0.0000518	0.0000988	-0.0000501	-0.000428	0.000130	-0.0000639	-0.0000565	-0.0000816	-0.0000801	0.000199	-0.000488	0.0000371	0.0000794	0.0000908	-0.0000552	0.0000391	0.0000964	0.0000763	0.000412	0.0000381	0.0000747	0.000141	-0.0000664	-0.0000859	-0.000476	0.0000706	-0.0000572	0.0000006	0.0000041	0.0000907	0.0000079	0.000179	-0.0000625	-0.0000885	0.000184	0.0000785	-0.0000888	-0.0000565	0.0000771	-0.0000532	0.0000312	0.0000150	-0.0000594	-0.0000825	-0.0000610	0.0000133	0.0000181	0.0000310	0.0000740	0.0000176	0.0000924	0.0000144	-0.0000852	0.0000373	0.000170	-0.0000542	-0.0000554	-0.0000821	0.0000944	-0.0000643	0.0000149	0.0000325	0.0000713	-0.0000621	0.000140	0.0000916	0.0000785	-0.0000825	0.0000096	0.0000700	-0.0000822	0.0000765	-0.0000807	0.0000074	0.0000062	-0.000403	0.000159	-0.0000558	-0.000477	0.0000368	-0.000463	0.0000148	-0.0000810	-0.0000531	0.0000102	0.000151	0.000431	-0.0000865	0.0000055	0.0000303	-0.0000816	0.0000074	-0.0000889	-0.000467	0.0000334	0.0000065	-0.0000522	-0.0000875	0.0000194	0.0000997	-0.000486	0.000454	-0.0000613	-0.0000521	0.0000107	-0.0000647	0.000188	-0.0000518	0.0000703	0.000177	-0.0000854	0.0000071	-0.0000605	-0.0000821	0.0000339	0.000430	-0.0000622	0.000140	0.0000732	-0.0000550	0.000450	-0.0000537	0.0000371	-0.0000541	0.0000123	0.0000065	-0.0000529	0.0000147	-0.0000581	0.0000352	0.0000910	0.0000329	0.0000302	-0.0000581	-0.0000680	0.000138	0.0000050	0.0000150	-0.0000630	0.000131	0.000177	-0.000484	-0.0000630	0.000188	-0.0000856	0.000124	0.0000082	0.0000755	0.0000746	-0.0000818	0.0000073	0.0000319	0.0000160	-0.0000893	0.0000981	-0.000429	0.0000902	0.0000969	0.0000347	-0.0000583	0.0000775	0.0000048	0.0000991	0.000141	-0.0000692	0.0000733	0.000111	0.000414	-0.0000660	0.0000322	-0.0000681	-0.0000518	-0.000493	-0.0000611	0.0000067	0.0000144	0.0000147	0.0000909	-0.0000643	-0.0000592	0.0000155	0.0000168	0.0000086	0.0000987	0.0000310	0.0000075	-0.0000654	-0.0000698	-0.0000696	0.0000169	-0.0000564	-0.0000684	0.0000335	-0.0000555	0.0000394	-0.0000683	0.0000752	0.0000719	-0.000493	0.0000077	0.0000357	0.0000704	0.0000011	0.0000900	0.000433	0.0000193	-0.0000551	0.0000166	0.0000355	0.0000088	0.0000780	0.000132	-0.000482	0.0000085	0.0000011	0.0000767	-0.0000895	-0.0000539	-0.0000608	0.0000984	0.0000333	0.0000982	-0.0000680	0.000458	0.0000103	-0.0000882	0.0000379	0.0000038	0.0000765	0.0000015	0.0000026	-0.000443	0.0000943	0.0000039	0.0000712	-0.0000520	0.0000019	-0.000408	-0.000425	0.0000748	0.000415	0.0000093	0.000197	-0.0000828	-0.000490	0.000458	0.0000968	0.0000991	-0.0000572	0.0000944	-0.0000670	-0.000400	-0.0000884	0.0000125	0.0000955	0.0000988	-0.0000532	-0.000441	0.0000192	0.0000700	-0.0000581	0.0000107	-0.0000646	0.0000095	-0.0000807	0.0000391	-0.0000888	0.0000937	0.0000338	0.0000938	0.0000919	-0.0000599	0.0000787	0.0000084	-0.0000851	-0.0000851	0.0000765	-0.0000535	0.000437	0.0000733	-0.0000875	0.0000729	-0.0000696	0.0000377	0.000105	0.0000071	-0.0000859	-0.0000857	0.0000949	0.0000307	-0.000484	0.0000391	0.000433	-0.0000645	0.0000317	-0.0000837	0.0000098	-0.0000602	0.0000928	0.0000365	0.0000036	0.0000794	0.0000091	0.0000960	0.0000928	0.0000125	-0.0000520	0.0000981	0.0000777	-0.0000614	-0.0000609	0.000185	0.0000326	-0.0000855	0.0000318	-0.0000528	-0.0000677	0.0000783	0.000154	0.0000917	-0.0000850	0.0000052	0.000139	0.0000067	-0.0000607	0.0000346	0.000410	0.000414	0.0000729	-0.0000516	0.0000712	0.0000789	0.000167	-0.0000567	-0.0000577	-0.0000853	0.0000767	-0.000477	0.0000091	0.0000903	0.0000958	-0.0000517	0.000120	-0.0000595	0.0000162	0.0000342	-0.000476	-0.0000518	0.0000191	0.0000023	0.0000091	-0.0000634	0.000185	0.000410	0.0000318	0.0000385	0.0000314	0.0000160	0.0000127	-0.0000549	0.000106	0.0000141	-0.0000813	-0.0000605	0.000146	0.0000023	-0.0000580	0.0000077	0.0000013	0.0000080	0.0000956	0.000193	0.0000086	0.0000755	0.0000337	0.0000387	0.0000385	0.000433	0.000110	0.0000707	0.000431	-0.000494	-0.0000645	0.0000093	0.000169	0.0000034	0.000153	0.000117	0.0000966	0.000178	-0.0000606	-0.0000837	0.0000908	-0.0000632	0.0000004	0.000433	-0.000429	0.0000986	0.0000796	0.0000926	-0.0000609	0.0000723	0.0000338	0.0000021	-0.0000847	0.0000042	0.0000059	0.0000322	-0.0000860	-0.000478	-0.0000823	0.0000307	0.0000901	0.0000303	0.000100	0.000194	0.0000317	0.0000069	0.0000124	-0.0000670	-0.0000600	-0.000497	0.0000980	0.0000774	-0.0000625	-0.000448	0.0000397	0.0000121	0.0000028	0.000154	0.0000994	-0.0000870	-0.0000820	0.0000377	0.0000009	-0.0000821	0.0000089	0.0000791	0.0000382	-0.0000622	0.0000006	0.0000318	-0.000483	0.0000962	0.0000151	0.000113	-0.000426	0.0000384	0.000171	0.0000052	-0.000423	-0.0000680	0.000186	0.000431	0.0000904	0.0000922	-0.000491	-0.0000645	-0.000423	0.000101	-0.000469	-0.0000613	-0.0000870	0.0000760	0.0000039	0.0000077	-0.0000573	-0.0000610	0.0000074	0.0000924	-0.0000514	0.0000038	-0.0000694	0.000173	0.0000159	0.0000399	-0.0000591	-0.0000664	0.0000374	-0.0000514	-0.0000643	0.0000099	0.000172	-0.0000590	0.0000044	0.0000949	-0.0000568	0.000154	-0.0000585	-0.0000603	-0.000478	-0.000447	-0.000476	0.0000999	0.0000085	-0.0000648	0.0000068	0.0000758	0.0000700	0.000163	0.0000005	-0.0000802	0.0000385	-0.0000817	-0.0000818	0.000199	0.0000773	0.0000036	0.0000377	0.0000991	0.0000385	0.000190	-0.000466	-0.0000878	-0.0000594	0.000146	0.0000354	0.0000726	0.0000975	0.0000077	-0.0000602	0.0000151	0.0000141	-0.0000816	0.0000098	0.0000132	-0.0000894	0.0000165	0.0000746	-0.0000841	0.0000770	0.0000087	-0.0000875	-0.0000645	0.0000382	0.0000179	0.000433	-0.000403	0.0000719	0.0000729	0.0000104	0.000179	0.0000981	-0.000447	0.0000903	0.0000124	0.0000353	0.000168	0.0000969	0.0000084	0.000154	0.000150	0.0000738	0.0000032	-0.0000558	0.0000382	0.0000731	-0.000469	-0.0000527	-0.0000660	0.0000970	-0.0000515	-0.0000886	-0.0000507	-0.0000563	0.000179	0.0000170	0.0000786	0.000136	-0.000474	-0.0000656	-0.0000669	-0.0000524	-0.0000650	-0.0000880	0.0000991	-0.0000685	-0.0000525	0.0000026	0.0000166	0.000110	-0.000465	-0.0000601	0.000436	0.000125	-0.0000620	0.0000385	-0.000426	0.0000989	0.0000113	0.0000064	-0.0000698	-0.0000625	0.0000062	-0.0000674	0.000135	0.0000343	0.0000794	0.0000953	-0.0000880	0.0000074	-0.0000886	0.0000313	0.000159	0.0000041	0.0000350
0.0000014	0.0000022	0.0000764	-0.0000520	-0.0000530	-0.0000511	0.0000778	0.0000002	0.000161	0.0000329	-0.000472	-0.000426	-0.0000869	0.0000321	0.0000387	0.0000782	0.000451	-0.0000807	0.000122	0.000123	-0.0000898	-0.0000585	-0.0000877	0.0000926	0.000108	0.0000033	0.0000998	0.0000758	0.0000959	0.0000109	0.0000139	-0.0000667	0.0000168	0.0000740	0.0000041	0.000164	0.0000767	0.0000370	-0.0000599	0.0000777	-0.0000872	0.0000944	0.0000358	0.000143	0.0000185	0.000174	0.0000977	0.000438	0.0000371	0.0000313	0.000135	0.0000996	-0.0000531	0.0000098	0.0000005	0.0000362	-0.0000554	-0.0000827	-0.0000868	0.0000914	0.000142	-0.0000552	-0.0000509	0.0000121	0.000134	0.0000141	0.0000026	0.0000968	-0.0000671	0.0000742	0.0000921	0.0000747	0.000170	0.0000709	0.0000360	-0.0000589	0.0000309	0.000192	0.0000787	-0.0000581	-0.0000556	0.0000172	0.0000020	0.0000937	0.0000185	-0.0000588	0.0000974	0.0000905	0.0000785	0.0000127	-0.0000892	0.0000361	-0.0000522	0.0000739	-0.0000511	0.0000738	0.0000040	0.0000982	0.000416	-0.0000689	-0.0000549	-0.0000813	0.000197	0.0000748	-0.000421	-0.0000546	0.0000364	-0.000446	0.0000158	0.0000376	-0.0000894	0.0000020	0.0000992	0.000198	0.0000094	-0.0000589	-0.0000568	0.0000771	-0.0000506	0.0000127	0.0000065	0.0000930	0.0000781	-0.0000574	0.0000106	0.0000772	-0.0000513	-0.0000670	0.000455	0.0000998	-0.0000599	0.0000757	0.0000960	0.000135	-0.0000680	0.0000966	0.0000711	0.0000051	-0.0000512	0.0000957	-0.000483	0.0000730	0.0000150	-0.0000858	0.0000015	0.0000370	0.0000751	-0.0000833	0.000144	0.0000993	-0.000425	-0.000423	0.0000075	0.0000961	0.0000984	-0.0000608	-0.0000531	0.000432	0.0000955	-0.0000835	0.0000043	-0.000420	0.000122	0.000128	0.0000333	-0.000461	-0.0000517	-0.0000867	-0.0000675	-0.0000599	0.0000360	-0.000463	-0.0000683	-0.0000544	0.0000348	-0.0000577	0.0000737	0.0000752	0.0000186	0.0000761	0.0000399	0.0000910	-0.0000565	0.0000798	0.0000003	0.0000154	0.0000017	0.0000742	0.0000953	-0.000462	0.0000982	0.0000756	0.000177	0.0000980	-0.0000509	0.0000039	-0.0000807	0.0000053	-0.0000575	-0.0000536	0.0000372	0.0000027	0.0000074	-0.000420	-0.000483	0.0000753	0.0000148	0.000433	0.0000721	-0.0000826	0.0000716	0.0000919	0.0000757	0.0000058	0.0000326	0.000120	-0.0000869	0.0000134	0.0000379	0.0000961	-0.0000549	0.0000153	0.0000750	0.0000935	0.0000704	0.0000329	0.000454	-0.0000839	0.0000037	0.000180	0.0000784	-0.000405	0.0000302	0.0000181	0.0000023	-0.0000627	-0.0000558	0.0000728	0.0000144	0.0000324	-0.0000685	0.0000730	0.0000346	-0.0000852	-0.000467	0.0000108	-0.0000880	0.0000192	0.0000062	0.0000344	0.000157	-0.000479	0.0000927	0.0000997	0.0000068	0.000105	-0.0000502	0.000154	0.0000921	0.0000343	-0.0000867	0.0000969	-0.0000515	0.0000131	0.0000050	-0.000400	-0.0000599	-0.0000658	0.0000999	-0.0000650	0.000435	0.000177	0.0000154	0.000157	-0.0000832	0.0000141	0.0000711	0.0000134	0.000125	-0.0000828	0.000450	-0.0000586	0.0000731	0.000178	-0.0000844	0.0000395	0.0000015	-0.0000679	-0.0000857	-0.000405	0.000193	0.0000108	-0.0000559	-0.0000590	0.000164	-0.0000508	0.0000943	0.0000147	0.0000087	0.0000073	-0.0000813	0.000182	0.0000156	0.0000129	0.0000161	0.000121	-0.0000523	0.000456	0.0000751	-0.000460	-0.0000554	0.000438	0.000166	0.0000147	-0.000480	0.000410	0.000454	0.000135	0.0000780	0.0000966	0.0000931	0.000107	-0.0000678	0.0000758	0.0000366	0.0000132	-0.0000574	0.0000016	0.0000053	-0.0000518	0.0000773	-0.000408	0.000411	0.0000105	0.0000780	0.0000700	0.0000977	0.0000340	0.0000760	-0.000426	0.0000709	0.0000792	-0.0000632	0.000146	0.000126	0.0000167	-0.0000635	0.000116	-0.0000560	-0.0000835	-0.0000607	-0.0000593	0.0000794	-0.0000500	0.0000133	0.0000760	-0.0000857	0.0000970	0.000436	0.0000913	-0.0000878	-0.0000675	0.0000004	-0.0000517	0.0000973	0.000455	0.000413	0.0000366	0.0000118	0.0000706	-0.0000566	-0.0000822	0.000155	0.0000772	0.000105	0.0000735	0.0000377	0.0000130	0.000125	0.0000093	0.0000100	0.0000336	0.0000130	0.0000704	-0.0000562	-0.000489	-0.000475	0.000459	0.0000128	0.0000027	-0.0000579	-0.0000845	0.0000126	0.0000711	0.0000097	0.0000125	-0.0000531	0.0000146	-0.0000651	0.0000355	-0.0000544	0.0000960	-0.000494	0.0000713	0.000151	0.000419	0.0000325	0.0000304	0.0000391	0.0000790	-0.0000553	0.0000051	-0.0000533	-0.0000558	0.0000004	-0.0000505	-0.000427	-0.0000677	-0.0000891	0.0000346	0.0000022	0.0000326	0.0000741	-0.0000544	0.000142	0.0000789	-0.0000673	0.0000114	0.0000939	0.0000174	-0.0000846	-0.0000862	0.0000000	0.0000369	0.0000109	0.0000799	-0.0000694	0.000454	0.0000053	-0.0000613	0.0000150	0.0000039	0.0000965	-0.0000820	-0.0000852	0.0000928	0.0000188	0.000167	-0.000465	0.0000712	0.0000342	0.0000385	0.0000350	0.0000381	0.0000748	0.0000996	0.0000019	-0.000497	-0.0000868	0.0000120	0.0000320	-0.0000541	0.0000936	0.000452	0.000168	-0.0000567	0.0000305	0.0000336	0.0000346	-0.0000857	0.0000300	0.0000134	0.0000907	-0.000494	-0.000471	0.0000741	-0.0000856	-0.0000688	0.000195	0.0000952	0.0000076	0.0000101	-0.0000852	0.000151	0.0000937	-0.0000878	-0.0000662	0.000438	-0.0000562	-0.0000570	-0.0000688	0.0000071	0.0000747	0.0000323	0.0000766	0.000171	-0.0000855	0.0000371	0.0000957	0.0000122	0.0000973	-0.0000677	0.000103	0.0000110	-0.0000869	0.0000349	0.0000137	0.0000743	-0.0000609	0.0000399	-0.0000823	-0.0000833	0.000161	0.0000922	0.000157	-0.0000840	0.0000027	-0.0000544	0.0000137	-0.0000664	0.0000704	-0.0000887	0.0000968	0.0000347	-0.0000892	-0.0000818	-0.0000602	0.0000386	0.0000769	-0.000426	0.0000901	0.0000787	-0.0000889	-0.0000627	0.0000721	0.0000977	0.0000908	0.0000332	0.0000978	0.0000152	0.0000300	0.000111	0.0000135	-0.000482	0.0000353	0.0000965	0.0000138	-0.0000544	-0.0000870	0.0000306	0.000454	0.0000900	0.0000334	0.0000726	0.0000354	-0.0000618	0.0000995	0.0000798	0.0000069	-0.0000808	-0.0000883	-0.0000819	-0.0000699	0.0000942	0.0000021	0.0000724	0.0000356	0.0000353	-0.000461	-0.0000657	0.0000319	-0.0000611	-0.0000653	0.0000048	0.000112	0.0000122	-0.0000689	-0.0000510	-0.0000816	-0.0000858	-0.0000886	-0.000444	0.0000960	-0.0000849	-0.0000510	-0.0000510	-0.000400	0.0000060	0.0000732	-0.0000544	0.0000981	0.0000302	0.0000041	0.0000188	-0.000499	0.0000191	0.0000912	-0.0000876	0.0000110	0.0000111	-0.0000686	0.000435	0.0000134	-0.0000611	-0.0000816	0.0000997	0.000106	0.0000967	0.000154	-0.0000514	-0.000476	0.0000742	0.0000733	0.0000146	0.000156	0.0000930	0.0000358	0.0000919	0.000137	-0.0000548	0.0000022	0.0000383	-0.0000682	0.0000102	0.0000750	0.0000163	-0.0000561	0.0000391	0.0000709	-0.000493	0.0000964	0.0000177	0.0000769	0.000142	0.0000060	-0.0000521	0.0000066	0.0000376	-0.0000664	-0.0000505	0.0000190	-0.0000530	-0.0000878	0.000184	0.0000906	0.0000072	0.000117	0.0000301	0.0000982	0.0000090	0.0000110	-0.0000682	-0.0000808	0.0000362	0.0000951	-0.0000869	0.0000942	0.0000748	0.0000747	0.000125	0.000147	-0.000464	0.0000750	0.0000372	-0.0000805	-0.0000633	-0.0000638	-0.0000621	-0.0000838	-0.000495	0.0000005	-0.0000855	-0.000426	0.0000333	0.0000192	0.0000908	0.0000716	0.0000166	0.0000370	0.0000727	0.000126	0.0000124	-0.0000680	0.0000120	0.0000721	0.000169	-0.0000665	0.000160	0.0000055	-0.0000517	0.0000946	-0.0000559	0.0000332	-0.0000597	0.000414	0.0000341	0.0000023	-0.0000886	0.0000988	0.0000989	-0.0000601	0.0000788	-0.0000673	-0.0000824	-0.0000567	0.0000966	0.0000779	0.000194	0.0000346	-0.0000519	-0.0000617	-0.0000640	0.0000094	0.000434	-0.0000881	0.0000708	-0.000447	-0.0000646	0.0000027	-0.0000877	0.000142	-0.0000884	-0.0000561	0.0000307	0.000123	0.0000988	0.000431	0.0000198	-0.0000608	-0.0000807	0.0000341	-0.0000610	-0.0000533	0.0000126	0.0000795	-0.0000628	0.0000910	-0.0000660	0.0000008	0.0000369	0.000150	0.0000084	0.000146	-0.0000649	-0.0000614	0.0000716	0.0000387	0.0000972	-0.0000864	0.0000166	-0.0000588	-0.0000559	0.0000068	0.000112	-0.0000682	0.0000052	-0.0000873	0.0000714	0.000107	-0.0000801	0.0000179	-0.0000839	0.0000933	0.000120	0.0000345	-0.0000637	-0.0000878	0.0000702	0.000142	0.0000905	-0.0000534	0.0000377	0.0000982	0.000136	0.0000082	0.0000132	0.0000337	-0.0000610	0.0000371	-0.0000837	0.0000013	-0.0000600	0.0000754	0.0000093
0.0000198	0.0000190	0.000179	0.0000094	-0.0000636	-0.0000515	-0.0000803	0.0000084	0.0000129	0.000187	0.000168	0.0000051	-0.000485	-0.000448	0.000438	0.0000347	0.000197	-0.0000862	0.0000107	0.0000956	-0.0000673	0.000415	0.000176	-0.0000600	0.0000380	-0.0000663	0.0000133	0.0000363	0.0000107	0.0000934	0.0000142	0.0000185	0.0000153	-0.0000500	0.0000062	-0.000499	-0.0000829	0.0000379	-0.000405	-0.0000565	0.0000341	0.0000148	0.0000741	0.0000755	0.0000974	0.0000363	0.0000399	0.0000040	0.0000045	0.0000966	0.0000034	-0.000471	0.000418	0.0000772	0.0000905	0.0000785	0.000199	0.0000358	-0.0000847	0.0000097	-0.0000584	0.000184	0.0000385	0.0000981	0.000194	0.0000193	-0.0000817	0.0000746	-0.0000602	0.0000748	0.0000327	0.0000113	0.000137	0.0000750	0.0000198	0.0000357	0.0000315	0.000138	0.0000175	0.000161	0.0000395	0.0000948	0.0000178	0.0000070	-0.0000696	0.0000164	0.0000358	0.0000319	0.000152	0.0000199	0.0000707	-0.0000659	-0.0000815	0.0000728	0.0000338	0.0000370	-0.0000823	0.0000327	-0.0000647	-0.0000526	0.0000051	0.0000961	-0.000474	-0.000486	0.000431	-0.0000893	-0.0000531	0.0000392	-0.0000679	0.0000127	0.0000954	0.0000096	0.000453	0.0000327	-0.0000615	-0.0000504	0.000131	-0.0000623	0.000458	0.000163	-0.000468	-0.0000649	-0.0000551	-0.0000593	-0.0000582	-0.0000529	0.0000955	-0.0000647	0.000451	0.0000002	0.000119	-0.000466	0.0000019	0.0000729	-0.000423	-0.0000854	0.0000072	0.0000140	0.0000198	0.000120	0.0000134	0.000154	0.000116	0.0000354	-0.0000867	-0.0000544	-0.0000559	0.000456	-0.0000863	0.0000951	0.0000337	-0.000488	-0.0000887	-0.0000857	0.0000968	0.0000366	0.0000356	0.0000767	0.0000059	0.0000962	0.0000336	0.0000376	-0.0000578	-0.0000591	-0.0000530	0.0000077	0.0000020	0.0000983	0.0000720	0.0000147	-0.0000517	0.0000986	0.0000076	-0.0000644	-0.0000544	0.0000735	0.0000340	-0.0000595	-0.0000861	-0.0000579	-0.000446	-0.0000577	0.0000772	0.0000085	-0.0000819	-0.0000674	0.0000702	0.0000373	0.0000332	0.0000788	0.0000758	-0.0000860	0.000142	0.0000077	0.000179	0.0000321	0.0000355	-0.0000656	0.0000989	0.0000954	0.000150	-0.000488	-0.0000823	0.000179	0.0000128	0.0000314	0.000194	-0.0000584	0.0000077	-0.0000841	-0.0000893	0.0000929	0.000189	-0.0000514	0.000193	0.000125	0.0000714	0.0000950	0.0000027	0.0000002	0.0000125	-0.000471	0.0000134	0.0000989	0.0000768	0.0000394	0.0000961	0.000125	0.000154	0.0000385	0.0000762	-0.0000860	-0.0000570	-0.000494	0.0000075	0.0000388	0.0000049	0.000110	0.0000909	-0.000420	0.0000901	-0.0000629	0.0000772	0.000192	0.0000022	0.000165	0.0000300	-0.0000598	0.000145	-0.0000620	-0.0000818	0.000184	-0.0000600	0.0000730	0.0000975	0.0000054	0.0000707	-0.000408	-0.000481	0.0000765	-0.0000880	-0.0000664	0.0000329	0.0000152	0.0000048	0.0000163	0.0000919	-0.0000530	0.0000739	-0.000444	-0.0000822	-0.0000874	0.0000724	0.0000184	0.0000053	0.0000001	0.0000796	0.0000743	-0.0000603	-0.0000847	0.0000378	0.0000380	0.0000745	0.0000357	0.0000993	0.0000993	0.0000765	0.0000183	0.000181	-0.000448	0.0000376	-0.0000826	-0.0000850	0.0000170	-0.0000637	0.0000305	-0.0000542	0.0000712	0.0000785	0.0000135	0.000175	0.0000920	0.000135	0.000118	0.0000300	0.0000086	-0.000487	0.000413	-0.000426	0.000181	-0.0000849	-0.0000532	-0.0000664	0.0000005	-0.0000823	-0.0000652	-0.0000546	0.0000749	-0.0000680	0.0000372	0.0000015	0.000178	0.0000312	0.0000957	0.000430	-0.0000864	-0.000498	-0.0000690	0.000130	0.0000321	0.0000061	-0.0000625	0.0000956	-0.0000656	0.0000782	0.000432	-0.0000582	0.0000314	0.0000030	0.0000151	0.000102	0.0000040	0.0000127	-0.0000639	-0.0000675	0.0000737	-0.0000572	-0.0000647	0.0000156	0.0000019	0.0000370	0.0000911	0.0000774	-0.0000559	0.000186	0.0000790	-0.0000803	0.0000198	0.0000195	-0.0000582	0.0000755	0.0000138	0.0000193	0.0000912	0.000177	-0.0000836	0.0000918	0.000161	-0.000498	-0.0000622	0.0000321	-0.0000557	-0.0000658	0.000166	-0.0000834	0.0000713	0.000419	0.000166	-0.0000531	-0.0000886	-0.0000636	0.0000322	-0.0000870	0.0000386	0.0000108	0.0000701	-0.0000585	0.0000984	0.0000918	-0.0000878	0.0000920	0.0000020	0.0000763	0.0000955	0.000410	-0.0000826	-0.000494	-0.0000864	-0.000477	-0.000462	0.0000902	0.0000029	0.000191	0.000170	0.0000322	0.000124	0.0000146	0.000139	-0.0000517	0.0000133	-0.0000521	-0.000427	0.0000007	-0.0000872	-0.0000830	0.000154	0.000106	-0.0000641	-0.0000874	-0.0000887	0.000127	0.0000186	0.0000970	0.0000939	-0.000488	-0.0000661	-0.000494	-0.0000868	0.000193	-0.0000670	0.0000762	-0.0000566	0.000183	0.000157	-0.0000646	-0.0000895	0.000415	-0.000406	0.0000339	0.0000061	-0.0000621	0.000146	0.0000789	-0.0000567	-0.000471	-0.0000833	0.0000354	0.0000703	-0.000471	0.0000193	0.000414	0.0000928	-0.0000856	-0.0000814	-0.0000886	0.0000144	0.000149	0.0000334	0.0000997	-0.0000580	0.000195	-0.000478	0.0000179	-0.0000651	-0.0000818	0.0000131	0.0000995	0.000150	-0.0000578	0.0000770	0.0000318	0.0000952	0.0000399	-0.0000581	0.0000969	0.0000083	0.000166	-0.000474	-0.0000647	-0.000482	-0.0000602	0.0000308	0.0000199	0.000166	0.0000712	0.000410	0.0000398	0.0000391	0.0000990	0.0000389	0.000416	0.0000318	-0.0000685	-0.0000841	0.0000186	0.0000327	-0.0000601	-0.0000558	0.0000943	-0.000443	-0.000479	0.0000077	-0.0000832	0.000184	0.0000743	0.0000984	-0.0000874	0.000434	0.000184	0.0000138	0.0000093	-0.000498	-0.0000623	0.0000177	0.0000142	0.0000175	-0.0000608	0.0000365	0.0000033	0.0000933	-0.000466	-0.0000803	-0.0000593	0.000192	0.0000104	0.0000353	0.000151	0.0000057	-0.000464	0.0000966	0.0000978	0.0000746	-0.0000838	-0.000448	0.0000393	0.0000008	0.0000363	-0.0000558	0.000439	0.000169	0.0000934	0.000455	-0.000463	-0.0000842	-0.0000604	0.0000938	-0.0000608	0.0000185	0.0000348	-0.000492	0.000123	-0.0000692	-0.0000636	0.000414	-0.0000835	0.0000924	-0.0000612	0.0000197	-0.0000526	-0.0000616	0.0000703	0.0000196	-0.0000693	0.000103	0.0000392	0.000197	0.0000977	0.0000128	-0.000488	0.000454	0.0000078	0.0000091	0.000123	0.000165	0.0000362	-0.0000511	0.0000396	-0.0000515	0.0000775	-0.0000561	0.0000936	-0.0000886	0.0000331	-0.0000517	0.0000073	0.000117	0.0000944	-0.000491	-0.0000699	0.0000326	0.0000137	0.000454	-0.0000642	-0.0000648	-0.0000625	-0.0000826	-0.0000541	0.0000324	0.0000991	0.0000361	0.0000318	-0.0000612	0.000123	-0.0000871	0.0000969	0.0000900	0.0000982	0.0000713	0.0000337	0.0000784	0.0000729	-0.0000868	0.000109	-0.0000659	0.0000908	0.0000141	0.000168	-0.0000881	-0.000466	0.0000032	0.0000035	-0.0000803	0.0000034	-0.0000812	-0.0000660	-0.000472	0.0000968	-0.0000673	-0.0000823	-0.0000876	-0.0000602	-0.0000668	-0.0000800	0.000158	0.0000763	-0.000403	0.0000156	0.0000308	-0.0000516	0.0000973	0.0000007	0.0000043	0.000110	-0.0000573	0.0000756	0.0000994	0.000412	0.000118	0.0000046	0.0000342	0.0000727	0.0000006	-0.0000576	0.0000985	-0.0000629	-0.0000804	0.0000126	-0.0000658	0.0000176	-0.0000570	-0.0000853	0.0000013	0.0000930	0.0000355	0.0000739	0.0000733	0.000450	-0.000495	0.0000130	-0.0000614	-0.0000579	0.0000908	0.0000788	0.0000322	-0.0000553	0.0000182	0.0000090	-0.0000669	0.000166	-0.0000623	0.0000918	0.0000916	-0.000487	-0.0000630	0.0000386	0.000115	0.0000078	0.0000079	-0.0000848	0.0000332	0.0000153	0.000417	-0.0000626	-0.0000660	0.0000166	0.0000747	0.0000341	-0.0000897	-0.0000613	-0.0000526	0.0000952	-0.0000540	0.0000021	0.000164	0.0000363	0.0000757	-0.0000690	0.0000709	-0.0000503	0.000168	0.0000008	0.0000037	0.0000980	0.000188	-0.0000505	-0.0000663	0.0000187	0.0000122	0.0000753	0.0000017	0.0000094	-0.0000883	-0.0000814	0.0000927	-0.0000882	0.0000782	-0.0000601	0.0000078	0.000450	0.000143	0.0000337	-0.0000678	-0.0000584	0.000192	-0.000468	0.000456	-0.0000584	0.0000140	-0.0000535	0.000457	0.0000007	0.0000301	-0.000482	0.0000134	0.0000069	0.000430	0.0000399	0.0000015	0.0000980	0.0000309	-0.000443	0.000127	-0.0000538	0.0000030	-0.0000872	0.0000901	0.0000166	0.000196	0.0000042	0.0000397	-0.0000515	-0.0000850	0.0000177	-0.0000813	-0.000494	0.0000344	0.0000128	-0.000471	-0.0000525	-0.0000596	0.0000104	0.0000013	-0.0000569	0.0000358	-0.0000674	0.0000717	-0.0000604	0.0000770	-0.0000817	0.0000345	0.0000065	0.0000067	0.0000091	0.0000122
-0.000490	-0.0000698	0.0000742	0.000437	0.0000082	-0.0000883	-0.000465	0.000188	0.000157	0.0000186	0.000107	0.000102	0.0000170	0.0000336	0.0000301	-0.0000857	-0.0000570	0.0000936	-0.000489	-0.0000829	0.0000711	0.0000369	0.0000999	0.0000702	0.0000168	0.0000937	0.0000130	-0.0000625	0.0000372	0.0000078	0.0000089	-0.0000673	0.000140	0.000411	-0.000404	0.0000910	0.0000173	0.0000369	-0.0000869	0.0000146	0.0000332	0.0000788	-0.0000825	-0.0000644	0.0000033	-0.0000867	0.0000190	0.0000943	0.0000357	0.0000317	0.0000906	0.0000370	0.0000302	-0.0000509	0.0000348	0.0000304	0.000435	0.000142	-0.0000681	0.0000107	-0.0000528	-0.0000510	-0.0000844	0.000186	0.0000338	0.0000038	0.0000094	0.0000757	0.0000103	0.0000193	0.0000156	0.0000080	-0.0000603	-0.000425	0.000146	0.0000185	0.0000999	0.0000057	-0.0000507	0.0000323	-0.000409	0.0000106	0.000456	0.0000905	-0.0000633	0.000112	-0.0000555	-0.0000894	-0.0000636	0.0000775	-0.0000667	-0.0000887	-0.0000813	0.0000373	-0.000463	-0.0000622	0.000132	-0.0000547	0.0000338	0.0000376	0.000146	-0.0000573	0.0000711	0.0000371	0.0000772	0.0000318	0.0000963	0.0000318	0.0000771	0.000145	0.0000145	0.000175	-0.000405	-0.0000857	0.000171	0.0000002	-0.0000861	-0.0000853	0.000434	-0.0000893	0.0000191	-0.0000551	0.0000026	0.0000020	0.0000070	-0.0000872	-0.0000607	-0.0000816	0.0000142	0.0000944	0.0000962	0.0000354	0.0000732	-0.0000835	-0.0000861	0.0000349	0.0000317	0.0000725	0.0000156	0.0000085	0.0000754	-0.0000894	-0.0000536	0.0000063	0.0000794	0.0000954	0.0000140	0.0000707	0.0000939	0.0000174	-0.0000510	0.0000724	0.0000005	0.0000789	-0.0000576	-0.0000562	0.0000321	0.0000182	-0.0000847	0.000455	0.0000072	-0.0000853	-0.000472	-0.0000818	0.0000993	0.0000098	0.0000088	0.0000938	-0.0000622	-0.0000574	0.0000183	0.0000063	-0.0000671	-0.000472	-0.0000588	0.000459	0.0000743	-0.0000874	-0.000444	-0.000467	0.000165	0.0000029	0.0000760	-0.0000587	0.0000907	0.0000700	0.0000151	-0.0000518	0.000434	0.0000741	-0.0000536	0.0000150	0.000189	-0.0000885	-0.0000587	-0.0000554	-0.0000537	-0.000405	-0.0000581	-0.0000554	-0.0000832	0.0000735	0.000191	0.0000929	0.0000017	0.000198	-0.0000575	0.0000322	0.000417	0.0000738	-0.0000601	0.0000782	-0.0000637	-0.0000603	0.0000331	-0.0000862	-0.0000603	0.0000116	0.000157	0.0000957	-0.000420	0.0000756	-0.0000618	-0.0000681	0.0000934	0.0000364	-0.0000818	0.0000029	0.0000995	0.0000062	0.0000385	-0.000470	0.0000913	-0.0000548	-0.0000549	0.0000127	-0.000492	-0.0000848	-0.0000552	0.0000927	-0.0000843	0.0000714	-0.0000880	-0.0000656	-0.0000699	0.0000959	0.0000359	-0.0000825	-0.000498	-0.0000586	0.0000088	0.0000377	0.000415	0.0000118	0.0000936	0.0000741	-0.000442	0.0000010	0.0000331	0.000133	-0.0000822	0.0000109	0.0000082	0.0000144	0.0000141	0.0000716	-0.0000886	0.0000125	0.0000905	0.0000350	0.0000371	0.0000377	0.000194	0.0000042	0.000112	-0.0000552	-0.0000607	0.0000386	-0.000464	-0.0000592	0.0000915	-0.0000606	0.000101	0.0000179	-0.000475	-0.0000816	-0.0000607	-0.0000882	-0.000475	0.0000351	-0.0000510	0.0000944	0.000191	-0.0000859	-0.0000698	0.0000001	-0.0000664	0.0000086	0.0000316	0.0000986	0.000104	0.000175	0.000128	0.0000316	0.000124	0.0000301	-0.0000590	-0.0000800	-0.000421	0.0000996	-0.000443	0.0000310	0.0000000	-0.0000855	0.000198	-0.0000535	-0.0000568	0.0000180	0.0000070	0.0000148	0.0000167	0.0000329	0.0000780	-0.000477	0.0000399	0.000150	-0.0000879	0.000410	0.0000966	-0.000489	0.0000186	-0.000446	0.0000077	-0.000404	-0.0000517	0.0000352	-0.000449	0.0000779	0.0000937	-0.0000894	-0.0000515	-0.0000676	-0.0000645	0.0000397	-0.0000884	0.0000968	0.0000359	0.0000316	0.0000376	-0.000488	-0.0000521	-0.0000527	0.0000079	0.000167	0.0000726	-0.0000641	0.000141	-0.0000624	0.0000900	0.0000124	-0.0000530	0.0000159	-0.0000815	-0.0000505	0.000187	-0.0000614	-0.0000536	0.0000307	0.000119	0.0000069	0.0000367	0.0000331	-0.0000837	0.0000164	0.0000932	0.0000183	-0.0000821	-0.0000574	0.0000052	-0.0000845	0.0000777	0.0000098	-0.0000852	-0.0000628	-0.0000500	0.0000986	-0.0000599	0.0000706	0.0000756	0.0000049	0.0000061	0.0000711	-0.0000879	0.0000977	0.000189	0.0000798	0.0000380	0.0000954	-0.0000835	0.0000024	-0.0000670	-0.0000859	0.0000008	-0.0000603	0.0000124	0.000191	-0.0000857	-0.0000692	-0.0000661	0.0000964	0.0000377	0.0000042	0.0000720	0.0000912	-0.0000810	0.0000160	-0.0000527	-0.000400	0.0000095	0.0000977	0.0000039	-0.000444	0.000194	0.0000964	-0.000492	0.0000929	0.0000389	0.0000086	0.0000775	0.0000384	-0.0000623	0.0000923	0.000414	0.000199	0.0000717	-0.0000658	-0.0000573	0.000411	0.0000980	0.000458	-0.000420	0.0000919	0.000417	-0.0000693	-0.0000885	-0.0000856	-0.000493	-0.0000652	-0.000406	0.0000723	0.0000345	-0.0000598	0.0000172	0.0000945	0.0000309	-0.0000513	0.0000772	0.0000320	-0.0000842	0.0000123	-0.000428	0.0000175	-0.0000664	-0.0000677	0.0000753	-0.000498	-0.000478	0.0000939	-0.0000648	0.0000133	-0.000447	-0.000428	0.0000320	0.0000373	0.0000911	0.0000353	0.000437	0.0000767	0.0000005	0.0000354	0.000457	0.000418	0.000137	0.000101	0.0000389	-0.000409	0.0000701	0.0000185	-0.0000889	0.0000187	-0.0000591	0.0000061	0.0000197	-0.000499	-0.0000856	0.0000160	0.000180	0.0000373	0.0000390	0.0000015	-0.0000889	-0.0000844	-0.0000846	-0.0000675	0.0000175	-0.000477	0.000417	0.0000087	0.0000399	0.0000391	0.0000194	0.0000151	0.0000772	0.0000367	0.0000044	-0.0000580	-0.0000599	-0.0000568	-0.000488	0.0000128	0.000188	0.0000027	-0.0000812	-0.0000601	0.0000700	0.0000187	0.000113	-0.000485	0.0000180	-0.0000684	0.000142	0.000458	0.0000177	0.0000073	0.0000034	0.0000774	0.0000910	-0.0000875	0.0000062	0.0000349	-0.0000527	0.0000057	0.0000165	0.0000711	0.0000074	0.0000354	-0.0000673	0.0000394	0.0000125	-0.0000598	-0.0000824	-0.0000660	0.0000709	0.0000084	0.0000940	0.0000975	-0.000488	0.0000324	-0.0000682	-0.0000567	-0.0000627	0.000180	0.0000051	-0.000462	-0.0000544	0.0000935	0.000180	0.0000015	-0.0000895	0.0000189	0.0000796	-0.0000810	0.0000967	0.0000024	0.0000350	0.0000911	-0.0000595	-0.0000632	-0.0000599	0.0000111	-0.0000635	0.0000792	0.0000177	-0.0000512	0.0000178	0.0000785	-0.000483	-0.000446	0.0000996	-0.0000686	-0.0000523	0.0000096	0.0000342	0.000144	0.0000048	-0.000407	0.0000317	0.0000725	-0.0000588	0.000173	-0.000409	0.000151	-0.0000866	-0.0000825	0.0000069	0.0000154	0.000450	-0.0000803	-0.0000631	-0.0000515	0.000150	0.000148	-0.0000584	-0.000402	-0.0000836	-0.0000581	0.0000343	0.0000167	-0.000428	0.0000728	0.000119	0.0000798	0.0000753	0.000174	0.0000767	0.0000730	0.0000380	-0.000490	-0.0000842	0.000135	-0.0000895	-0.0000810	-0.0000695	0.0000744	0.0000727	-0.0000888	-0.0000674	0.0000910	0.0000096	0.000167	0.0000975	0.0000718	0.0000048	0.0000930	-0.0000652	0.0000906	-0.0000630	0.0000093	0.0000009	-0.0000628	0.0000058	0.0000014	0.000459	0.0000366	0.0000737	-0.0000832	0.0000074	-0.000487	-0.0000812	0.0000381	-0.0000663	-0.000427	-0.0000834	0.0000341	-0.0000878	0.0000741	0.0000347	-0.0000682	0.0000053	0.0000928	-0.0000600	-0.0000671	0.000188	-0.0000520	0.0000999	0.0000071	-0.0000876	-0.0000536	-0.0000870	0.0000010	-0.0000583	-0.0000596	0.0000933	-0.0000626	0.0000984	-0.000442	0.0000941	-0.0000506	0.0000703	-0.0000671	0.0000917	-0.0000671	-0.0000590	0.0000701	0.0000122	-0.0000517	0.0000022	-0.0000852	0.0000370	-0.0000691	-0.000423	-0.0000685	-0.0000667	0.000414	0.0000167	-0.0000673	-0.0000861	0.0000372	0.0000929	-0.000429	0.000173	0.0000145	0.000123	0.0000976	-0.0000501	-0.0000869	0.0000317	0.0000028	0.0000716	0.0000397	0.000152	-0.0000609	-0.0000546	0.0000173	0.0000976	0.0000321	0.0000105	-0.0000579	0.0000945	0.0000981	0.0000325	-0.0000643	-0.0000559	0.0000341	0.0000153	-0.0000626	0.0000004	-0.0000659	0.0000997	-0.0000631	0.000195	0.0000393	-0.0000687	-0.000499	0.0000148	0.0000361	0.0000086	0.000102	-0.0000854	-0.000424	0.0000968	-0.000482	-0.000478	0.000126	0.0000318	-0.0000525	0.000160	-0.0000618	0.0000176	0.0000307	0.0000916	-0.0000662	-0.0000566	-0.0000663	0.000430	0.0000121	-0.0000831	0.0000073	0.0000178	0.000414	-0.0000632	0.000197	0.0000011	0.0000763	-0.0000691	0.0000001	-0.0000599	0.0000047	0.000128	-0.0000616	-0.0000660	0.0000102	-0.0000591	0.0000182
0.0000099	0.000162	-0.000482	0.0000792	-0.000445	-0.0000641	-0.0000630	-0.000464	0.0000770	0.0000387	0.0000184	-0.0000616	0.0000168	-0.0000619	0.000430	-0.000425	0.0000376	0.0000792	0.0000151	0.0000058	0.0000175	0.0000086	0.0000320	0.000122	0.0000351	0.000156	0.0000351	-0.0000539	0.0000953	-0.0000610	-0.0000569	0.0000309	0.0000337	0.0000724	-0.0000817	0.0000362	0.0000353	-0.0000877	0.0000106	0.0000731	0.0000339	0.000436	0.0000933	0.000456	0.0000109	-0.0000551	0.000458	-0.0000617	0.0000925	0.0000720	0.0000987	0.0000103	-0.000476	0.0000797	-0.0000850	0.0000908	0.0000909	0.000434	-0.000401	-0.0000683	0.0000181	0.000155	0.000100	-0.0000615	-0.0000655	0.0000759	0.0000796	-0.0000812	0.0000744	0.0000072	0.0000074	0.000121	0.0000082	0.0000003	-0.0000812	-0.0000581	0.0000952	0.000193	0.0000926	0.0000023	0.0000713	-0.000490	0.0000312	0.0000787	0.0000362	0.0000004	0.0000071	0.000411	0.0000745	0.0000196	0.0000136	0.000118	0.0000016	0.0000703	0.0000902	0.0000181	0.0000035	0.000104	0.000196	-0.0000861	-0.0000684	0.0000795	0.000117	-0.0000812	-0.0000538	-0.0000862	-0.0000512	-0.0000511	-0.0000670	0.0000946	-0.000464	-0.0000659	0.0000932	0.0000385	0.0000925	-0.0000821	-0.0000542	0.0000157	0.0000367	0.0000072	0.000174	0.0000327	0.0000794	-0.0000681	-0.0000689	0.0000709	-0.0000556	0.0000995	-0.0000822	0.0000726	0.0000141	0.0000003	0.0000959	-0.0000646	-0.0000894	0.0000029	0.000196	-0.0000882	-0.0000853	0.0000782	0.0000739	-0.0000635	0.0000769	-0.0000813	-0.000425	0.0000780	-0.0000509	-0.000402	-0.0000850	-0.000405	-0.0000864	-0.0000585	-0.0000694	0.0000090	0.0000702	0.0000165	-0.000404	-0.000446	0.0000704	-0.0000555	0.000454	0.0000951	-0.000403	0.0000952	0.0000370	0.0000941	0.0000121	0.0000712	-0.0000661	-0.0000562	0.0000039	0.0000106	0.0000732	0.0000183	-0.0000526	0.0000384	-0.0000571	-0.0000862	-0.0000597	-0.0000664	-0.0000520	0.000179	-0.000477	0.0000704	-0.0000843	-0.0000806	0.0000730	-0.0000663	-0.0000678	0.0000129	0.0000771	0.0000718	0.0000061	0.0000718	0.0000021	0.0000968	0.0000719	0.0000334	-0.0000614	0.000119	-0.000480	0.0000151	0.0000363	0.0000109	0.0000046	-0.0000669	0.000177	0.000198	0.0000950	0.000415	0.0000394	-0.000475	-0.0000563	0.0000125	-0.0000617	-0.0000670	-0.0000600	0.0000097	0.0000708	0.0000910	-0.0000845	0.0000738	0.0000083	-0.000422	0.0000794	-0.000424	0.0000046	0.0000364	-0.0000871	0.0000156	0.000103	0.0000771	-0.000443	0.0000708	-0.0000591	-0.0000530	0.000124	-0.0000807	0.0000306	-0.0000893	0.0000165	0.0000355	0.0000383	-0.0000829	-0.0000629	-0.0000629	-0.000493	0.0000142	0.0000724	0.000119	0.0000152	0.0000149	-0.0000634	-0.0000836	0.000156	-0.000408	0.0000111	-0.0000838	0.0000314	-0.0000815	0.0000108	0.0000733	0.000115	0.0000742	0.0000716	-0.0000683	0.0000960	-0.0000618	0.0000074	0.000139	0.0000066	0.0000978	-0.0000804	-0.0000653	0.0000962	-0.0000854	0.0000076	-0.0000580	0.000412	0.0000338	-0.0000622	0.0000952	-0.0000526	-0.0000673	0.0000967	-0.0000661	0.000452	-0.0000568	-0.0000675	0.0000940	-0.000407	-0.0000699	-0.0000502	-0.0000821	-0.0000698	0.0000702	-0.0000503	-0.0000504	-0.0000864	-0.0000839	-0.0000697	0.0000700	0.0000354	-0.0000524	0.0000774	0.0000176	-0.0000825	-0.0000825	-0.0000846	-0.0000697	0.0000055	0.0000339	0.000103	-0.0000574	0.0000059	0.000410	-0.0000892	0.0000113	0.000114	0.0000064	-0.0000600	-0.0000514	-0.0000807	0.0000004	0.0000359	-0.0000535	-0.0000672	0.0000788	-0.000409	0.0000074	0.0000193	0.0000130	-0.000427	-0.0000582	0.0000749	-0.0000597	0.0000023	-0.0000802	0.0000727	-0.0000800	0.0000135	0.0000044	0.0000023	-0.0000569	0.0000733	0.0000188	-0.000467	-0.0000517	0.000418	-0.0000525	0.000112	-0.0000693	-0.000472	-0.0000886	-0.0000696	0.000133	0.0000706	0.000410	0.0000329	-0.000498	-0.0000896	0.0000371	0.000436	0.0000720	0.000174	-0.0000561	0.000151	0.0000192	0.0000321	0.0000736	0.0000191	-0.0000690	0.0000949	0.0000788	0.0000391	-0.0000855	0.0000151	-0.000449	0.0000035	-0.0000651	-0.0000505	0.0000074	0.0000997	0.000456	-0.0000594	0.000165	0.000127	0.0000385	0.0000341	0.0000314	0.0000047	-0.0000661	0.0000941	-0.000404	-0.000423	0.0000048	-0.000442	0.0000373	0.000110	0.0000376	0.0000143	0.0000194	-0.0000525	0.0000706	-0.0000691	-0.0000597	0.000457	0.0000142	-0.0000561	0.0000708	-0.0000602	0.0000071	-0.0000683	-0.0000827	-0.0000849	0.0000772	0.0000071	-0.0000576	0.0000131	0.0000168	0.000178	0.0000380	-0.0000601	0.0000160	0.0000170	-0.0000831	-0.0000800	-0.0000641	0.0000776	0.0000915	-0.0000802	0.0000741	-0.0000636	0.0000026	0.000134	-0.000408	-0.0000843	-0.0000616	0.0000368	0.000116	0.000137	-0.0000672	-0.000403	0.0000161	-0.000475	-0.000400	0.0000339	0.0000761	0.0000007	-0.0000695	-0.0000574	0.0000060	0.0000023	0.0000977	0.0000144	0.0000965	0.0000076	-0.0000888	0.0000051	-0.000478	-0.0000803	-0.0000577	0.0000359	0.0000751	-0.0000620	-0.0000821	0.0000739	-0.0000507	-0.000468	-0.0000640	0.000152	-0.0000591	0.000192	-0.000424	0.0000759	-0.0000628	-0.0000538	-0.0000807	-0.0000512	0.0000946	-0.0000612	0.0000059	0.0000328	-0.0000555	0.0000316	0.0000112	0.0000149	-0.000423	0.0000742	0.0000004	-0.0000692	-0.0000826	-0.0000651	0.000133	0.000161	-0.000409	0.000410	-0.0000830	0.0000364	-0.0000896	-0.0000870	-0.0000650	0.0000095	-0.0000838	0.000181	-0.0000578	0.000163	0.0000789	-0.0000506	-0.000461	0.0000727	0.000131	0.0000703	-0.000406	0.0000078	-0.0000522	-0.0000522	0.000458	0.0000715	0.0000968	0.0000178	0.000118	-0.0000635	0.0000387	0.0000074	-0.0000677	-0.0000842	-0.0000679	-0.0000538	-0.000476	-0.000496	0.0000984	0.0000998	-0.0000861	0.0000319	-0.0000621	-0.000498	0.0000382	-0.0000595	0.0000962	0.0000064	-0.0000575	-0.000462	0.0000046	0.000157	0.0000755	0.000156	0.0000912	-0.0000842	0.0000960	0.0000795	-0.0000629	0.0000710	0.0000791	-0.0000541	0.000198	0.0000001	-0.000481	-0.0000872	0.0000997	-0.000403	0.0000031	0.0000102	0.000451	0.0000721	0.000154	0.0000179	-0.0000660	-0.0000698	-0.0000530	-0.0000654	-0.000462	0.0000368	0.0000987	-0.000424	-0.0000637	-0.0000625	0.0000128	-0.0000837	-0.000424	0.0000331	0.0000738	0.0000322	-0.0000509	-0.000480	0.0000039	0.0000022	0.0000780	0.0000995	0.000138	0.0000133	0.0000197	-0.000466	0.000412	0.0000704	-0.0000837	0.0000983	-0.000492	0.0000357	0.0000937	0.0000974	-0.0000547	0.0000042	-0.0000595	0.0000116	-0.0000689	0.0000771	0.0000907	0.0000020	0.0000797	0.0000346	0.0000092	-0.0000629	0.0000166	0.000154	0.0000036	0.0000067	0.0000088	-0.0000838	0.0000110	0.0000357	-0.0000812	-0.0000834	0.000170	0.0000033	-0.0000546	0.0000993	0.0000329	-0.0000880	0.000432	0.0000087	0.0000960	-0.0000695	-0.0000595	-0.0000886	0.0000077	0.0000717	-0.0000666	0.0000317	0.000189	-0.0000584	0.0000741	-0.000468	-0.0000574	-0.0000817	-0.0000517	0.0000302	-0.0000838	-0.0000623	0.000157	0.000133	0.0000325	0.0000114	0.0000001	0.0000153	-0.0000667	0.0000046	0.0000086	0.0000702	-0.000485	0.000153	0.0000393	0.0000928	0.0000986	0.0000705	0.000152	0.0000788	0.0000172	0.0000151	0.0000938	0.0000057	-0.0000615	-0.000462	0.0000752	-0.0000593	0.0000156	-0.000464	-0.0000614	0.0000722	-0.0000832	-0.0000832	0.0000912	0.0000081	0.000146	0.0000302	-0.0000593	0.0000363	0.0000793	0.0000939	0.0000153	0.0000162	-0.000499	0.0000920	0.000159	-0.0000698	0.0000194	0.0000142	0.0000107	0.000418	-0.0000861	-0.0000652	-0.0000853	0.0000933	-0.0000825	-0.0000876	0.000159	0.0000304	0.0000712	0.0000990	0.0000797	0.0000906	0.000413	-0.0000858	0.0000700	-0.0000608	-0.0000819	-0.0000559	0.0000077	-0.0000513	0.0000142	0.0000780	0.000145	-0.0000660	-0.0000605	0.000118	0.0000708	-0.0000549	-0.000477	-0.0000501	0.0000754	0.0000122	-0.0000600	0.0000078	0.0000041	0.000431	0.0000712	0.0000010	0.0000007	0.000410	0.0000088	-0.0000831	0.0000059	0.0000978	-0.0000693	0.0000779	-0.0000821	0.0000771	0.0000113	0.0000763	0.0000327	-0.0000504	0.0000110	-0.0000890	-0.000400	0.0000029	0.0000703	0.0000123	-0.0000657	0.0000023	0.000189	-0.0000635	0.0000383	0.0000741	0.000186	0.0000137	0.0000101	0.0000333	0.0000910	-0.0000519	0.0000190	0.0000364	0.0000160	-0.0000625	0.0000963	0.0000317	0.0000126	0.0000065	0.000450	0.0000107	0.0000375	-0.0000685	0.0000747	-0.0000524	-0.000423
-0.0000550	-0.0000620	0.0000394	0.0000320	-0.0000840	0.0000794	0.0000165	0.0000017	-0.000471	0.0000196	-0.0000896	0.0000093	-0.0000882	-0.000484	0.000130	0.000111	-0.0000832	-0.0000601	0.0000772	0.0000089	0.0000178	0.0000171	-0.0000501	0.0000980	-0.0000828	-0.0000856	0.0000105	0.0000396	0.000197	0.0000379	0.0000985	-0.0000570	0.0000717	0.0000154	0.000451	-0.0000523	-0.0000851	0.0000131	-0.0000613	0.0000926	0.0000076	0.0000179	0.000431	0.0000704	0.000149	0.0000125	0.0000703	-0.000467	0.000107	0.0000063	-0.0000863	0.000199	-0.0000680	0.0000101	-0.000461	0.0000365	0.0000158	-0.0000573	0.0000151	0.0000954	0.0000348	-0.0000529	0.0000787	0.0000725	-0.0000663	-0.0000694	0.0000314	0.0000124	0.0000348	0.0000386	-0.0000552	-0.0000510	-0.0000862	0.0000141	0.000146	-0.0000827	0.0000752	0.0000326	0.0000163	0.0000028	-0.000445	-0.0000838	-0.0000846	0.0000358	0.0000952	0.000117	0.000184	0.0000016	-0.0000511	0.0000764	-0.0000638	0.0000382	-0.000495	0.000194	-0.0000556	0.0000162	0.0000911	0.0000990	-0.0000500	0.0000364	0.0000143	0.0000915	0.000131	0.0000933	0.000192	-0.000444	-0.0000633	-0.0000650	-0.0000852	0.0000309	-0.0000513	0.0000119	-0.000443	-0.0000862	0.0000765	0.0000799	0.0000076	0.0000382	0.0000075	-0.0000663	-0.0000508	0.0000134	0.0000017	0.0000300	0.0000097	0.0000763	0.000179	0.0000348	0.0000356	0.000100	0.0000171	-0.0000837	0.000105	0.000122	0.0000368	0.0000729	-0.0000549	-0.0000834	0.0000013	0.0000001	-0.0000678	-0.000494	-0.0000619	0.0000960	0.0000042	0.0000032	0.0000911	0.0000387	-0.000400	0.000458	-0.0000505	0.0000998	0.0000058	-0.0000876	-0.0000655	-0.0000840	0.0000989	-0.0000686	0.0000306	-0.0000822	0.000135	0.0000092	-0.0000835	0.0000184	-0.0000875	-0.0000660	0.0000016	0.000439	-0.0000844	0.0000036	-0.0000872	0.0000306	-0.0000681	-0.0000556	-0.0000880	-0.000477	-0.0000893	-0.0000877	-0.0000684	0.000174	0.000415	-0.0000510	0.0000994	-0.0000584	-0.0000629	0.0000047	0.0000034	0.0000740	0.0000104	-0.0000541	0.0000724	-0.0000630	0.000438	0.0000118	0.000430	0.0000014	0.0000379	0.0000118	0.0000948	0.0000949	0.0000076	-0.0000868	0.0000747	-0.000498	0.0000923	0.0000189	0.0000378	0.0000765	-0.0000541	0.0000743	0.0000071	0.0000315	0.0000934	-0.0000519	-0.0000627	0.000126	0.0000379	-0.0000522	-0.0000872	-0.0000809	-0.0000537	-0.0000501	0.0000766	0.000170	-0.0000872	-0.000468	-0.000480	0.0000145	0.0000941	0.0000999	0.0000981	0.0000903	0.0000945	0.0000777	0.0000920	0.000109	-0.000492	-0.0000581	0.000130	-0.0000585	-0.0000681	0.000124	-0.0000671	0.000186	-0.0000548	0.000439	0.000199	0.0000134	0.0000148	0.0000033	-0.000499	0.0000054	-0.0000800	-0.0000679	-0.0000541	-0.0000838	-0.0000591	-0.0000590	0.000168	0.0000099	0.0000997	0.000450	-0.000426	0.000456	-0.000466	-0.0000696	0.0000137	-0.0000506	0.0000927	0.0000762	0.0000332	0.0000115	-0.000446	0.0000160	0.0000114	0.0000198	0.000149	0.0000034	0.000106	0.000122	-0.0000693	0.0000018	0.0000345	0.0000963	0.0000115	0.000167	-0.0000553	-0.0000696	-0.0000590	-0.000499	0.0000199	0.0000096	-0.0000852	0.0000763	0.0000309	-0.0000823	0.0000356	0.0000009	0.0000035	0.0000998	-0.0000822	-0.000476	0.0000382	0.0000354	-0.0000670	0.0000061	0.0000998	-0.0000680	0.0000034	-0.0000602	0.000172	0.0000391	0.0000374	0.000181	0.0000141	-0.0000854	0.0000907	0.0000928	0.0000995	0.0000760	0.0000767	-0.0000866	0.0000110	-0.0000635	0.0000909	0.0000990	0.0000340	0.000193	0.0000954	0.0000755	-0.0000596	-0.0000843	-0.0000518	-0.0000867	0.0000306	-0.0000860	0.000138	-0.0000883	-0.000474	-0.0000590	0.0000125	-0.0000848	0.0000782	0.0000919	0.000113	0.0000971	0.000179	-0.0000526	0.0000775	0.0000385	0.0000003	0.0000121	0.0000764	-0.0000522	-0.0000549	-0.0000881	0.000170	-0.0000607	-0.0000606	-0.0000807	-0.0000551	-0.0000635	-0.0000856	-0.0000888	0.0000983	0.0000773	-0.0000681	-0.0000894	0.0000177	-0.0000888	0.0000922	-0.0000555	0.0000394	0.0000997	-0.0000641	-0.0000664	-0.0000517	-0.0000680	-0.0000838	0.0000388	-0.0000560	-0.0000672	0.0000944	-0.0000824	-0.0000844	-0.000406	0.0000997	0.000108	-0.000473	-0.0000804	-0.0000607	0.0000122	-0.0000846	0.0000368	0.0000313	-0.0000835	0.0000920	0.000151	0.0000374	-0.0000697	0.0000779	0.0000103	-0.0000609	-0.0000824	-0.000443	0.0000365	0.0000991	-0.0000670	0.0000798	0.0000982	0.0000923	-0.0000853	0.0000981	0.0000153	0.000103	0.0000709	0.0000029	0.0000056	0.0000335	0.0000378	0.0000062	0.0000778	0.0000916	-0.0000511	0.0000999	0.0000024	0.0000983	0.0000731	-0.0000878	0.000126	0.0000743	-0.0000815	-0.0000678	0.0000713	-0.0000560	0.000110	0.0000940	0.0000111	0.000199	0.0000396	0.0000749	0.0000752	0.000195	0.0000166	-0.0000822	0.0000728	-0.0000657	-0.0000868	-0.0000694	-0.000463	0.000127	0.0000731	0.0000711	-0.0000881	0.0000089	0.0000710	0.000419	0.000124	-0.0000697	0.000433	0.0000099	0.000150	-0.0000887	-0.000477	0.0000052	0.000416	0.0000182	0.0000093	0.0000371	0.0000343	-0.0000851	-0.0000694	0.0000052	0.0000148	0.0000398	0.0000338	0.0000373	-0.0000521	-0.0000623	0.0000181	0.0000931	0.000451	-0.000400	-0.000487	0.0000130	0.0000940	0.0000150	0.000166	-0.0000631	0.0000930	-0.0000658	-0.0000523	0.0000957	0.0000939	-0.0000881	0.000457	-0.0000613	-0.0000552	-0.0000837	0.000137	-0.0000827	0.000197	0.000413	-0.0000836	-0.0000650	-0.0000612	-0.0000560	0.0000116	0.000175	0.0000152	-0.0000610	0.0000309	-0.0000679	-0.0000690	-0.0000839	0.000457	0.0000001	-0.000484	-0.0000648	0.0000186	-0.0000627	0.0000056	-0.0000503	0.000154	-0.0000607	0.0000350	-0.0000500	-0.000447	-0.0000661	0.0000748	0.0000131	0.0000783	0.0000056	0.0000746	-0.000406	0.000436	-0.0000615	-0.0000512	0.0000724	0.0000048	0.0000309	-0.0000809	0.0000927	0.0000068	0.0000967	-0.0000664	-0.0000887	0.000145	0.0000751	0.000431	-0.0000822	0.0000913	0.0000158	-0.0000654	-0.0000575	0.0000748	0.0000728	0.0000958	0.0000190	-0.0000683	0.0000130	0.0000395	-0.0000545	0.0000039	-0.0000556	0.0000088	0.0000983	0.0000381	0.0000312	0.0000729	0.0000025	0.000415	-0.000424	0.000118	-0.0000540	-0.0000534	0.0000986	0.000451	0.0000936	-0.0000675	-0.000494	-0.000499	-0.0000814	0.0000338	0.0000022	0.0000795	0.0000094	0.0000390	-0.0000517	-0.0000528	0.000135	-0.0000654	-0.0000644	-0.0000605	0.0000950	-0.0000522	0.0000975	0.0000753	0.0000946	0.0000745	-0.0000630	0.0000184	-0.0000567	0.000415	0.0000163	0.0000965	-0.000491	0.0000749	0.0000149	-0.000479	0.0000793	0.0000700	0.0000729	0.0000334	0.000153	0.0000723	0.000415	0.000103	0.0000087	-0.000443	0.0000735	-0.0000892	-0.0000654	0.000162	-0.0000537	0.000457	-0.0000567	0.0000021	0.0000353	0.0000777	0.0000008	0.0000133	0.0000157	0.0000320	0.0000098	-0.0000695	-0.0000549	0.0000194	0.0000006	0.0000763	0.0000986	0.000138	0.0000169	-0.0000803	0.0000737	-0.0000618	0.0000728	0.0000126	0.0000362	0.0000726	0.000100	0.0000710	-0.0000532	0.0000192	-0.0000882	0.0000143	0.0000118	-0.0000616	0.0000027	-0.0000848	0.0000300	0.0000002	0.0000348	-0.0000502	0.000435	-0.0000866	0.0000065	0.000185	0.000179	-0.0000549	-0.0000585	0.0000047	0.0000154	0.000190	-0.0000645	0.0000036	0.000170	0.0000077	0.000114	-0.0000856	0.0000920	0.000126	0.000452	-0.0000545	-0.0000571	0.000118	-0.0000869	0.0000902	0.0000020	0.0000700	0.0000936	0.0000775	0.0000329	-0.0000505	-0.0000505	0.0000054	-0.0000817	0.0000172	0.0000747	0.0000130	-0.0000684	-0.000421	0.0000764	0.0000339	-0.0000617	0.0000760	0.0000381	0.0000902	0.0000098	0.0000942	0.0000717	0.0000377	0.0000305	0.000160	-0.0000691	-0.0000551	-0.0000832	0.0000353	-0.0000594	-0.0000849	0.0000336	-0.000448	-0.0000889	-0.0000604	0.000438	-0.0000884	0.000166	0.000198	0.0000044	0.0000351	0.0000384	0.0000057	-0.0000509	-0.0000828	0.000144	-0.0000621	0.0000004	0.0000163	0.0000383	-0.0000893	0.0000763	-0.0000662	0.0000055	0.0000976	0.000412	-0.000446	0.000172	0.0000973	0.000166	-0.0000831	0.000457	0.0000380	0.0000762	0.0000993	0.0000301	0.0000030	0.0000761	0.0000107	0.0000024	0.0000959	0.0000767	0.0000111	0.0000972	0.0000152	-0.0000535	0.0000712	0.0000745	0.0000112	0.0000771	0.0000978	0.0000181	0.0000115	0.0000008	0.000125	-0.0000822	-0.000429	-0.0000500	0.0000724	0.0000169	0.000187	0.000180	0.0000053	0.0000152	-0.0000638
